<?xml version="1.0"?>
<opencv_storage>
<stage14>
  <maxWeakCount>8</maxWeakCount>
  <stageThreshold>-7.6316058635711670e-001</stageThreshold>
  <weakClassifiers>
    <_>
      <internalNodes>
        0 -1 69297 2.5740956887602806e-002</internalNodes>
      <leafValues>
        -2.2580644488334656e-001 6.8265682458877563e-001</leafValues></_>
    <_>
      <internalNodes>
        0 -1 154723 1.0282713919878006e-003</internalNodes>
      <leafValues>
        2.8825756907463074e-001 -7.6685857772827148e-001</leafValues></_>
    <_>
      <internalNodes>
        0 -1 169923 9.3243978917598724e-003</internalNodes>
      <leafValues>
        -4.3438419699668884e-001 4.2969802021980286e-001</leafValues></_>
    <_>
      <internalNodes>
        0 -1 139173 -2.1772610489279032e-004</internalNodes>
      <leafValues>
        -7.2568422555923462e-001 2.2201013565063477e-001</leafValues></_>
    <_>
      <internalNodes>
        0 -1 177 3.5337316803634167e-003</internalNodes>
      <leafValues>
        -6.5319758653640747e-001 2.3818999528884888e-001</leafValues></_>
    <_>
      <internalNodes>
        0 -1 216156 -3.2121189869940281e-003</internalNodes>
      <leafValues>
        3.7364423274993896e-001 -5.0225186347961426e-001</leafValues></_>
    <_>
      <internalNodes>
        0 -1 89885 -5.9825692005688325e-005</internalNodes>
      <leafValues>
        2.3209348320960999e-001 -6.9626277685165405e-001</leafValues></_>
    <_>
      <internalNodes>
        0 -1 19504 -1.3725436292588711e-004</internalNodes>
      <leafValues>
        -5.2735030651092529e-001 3.6257842183113098e-001</leafValues></_></weakClassifiers></stage14>
</opencv_storage>
