<?xml version="1.0"?>
<opencv_storage>
<cascade>
  <stageType>BOOST</stageType>
  <featureType>HAAR</featureType>
  <height>60</height>
  <width>40</width>
  <stageParams>
    <boostType>GAB</boostType>
    <minHitRate>9.9500000476837158e-01</minHitRate>
    <maxFalseAlarm>5.0000000000000000e-01</maxFalseAlarm>
    <weightTrimRate>9.4999999999999996e-01</weightTrimRate>
    <maxDepth>1</maxDepth>
    <maxWeakCount>100</maxWeakCount></stageParams>
  <featureParams>
    <maxCatCount>0</maxCatCount>
    <featSize>1</featSize>
    <mode>ALL</mode></featureParams>
  <stageNum>20</stageNum>
  <stages>
    <!-- stage 0 -->
    <_>
      <maxWeakCount>2</maxWeakCount>
      <stageThreshold>5.0615936517715454e-01</stageThreshold>
      <weakClassifiers>
        <_>
          <internalNodes>
            0 -1 38 2.0316131121944636e-04</internalNodes>
          <leafValues>
            -4.2857143282890320e-01 1.</leafValues></_>
        <_>
          <internalNodes>
            0 -1 21 9.4064707809593529e-05</internalNodes>
          <leafValues>
            -4.9384066462516785e-01 1.</leafValues></_></weakClassifiers></_>
    <!-- stage 1 -->
    <_>
      <maxWeakCount>2</maxWeakCount>
      <stageThreshold>2.0000000298023224e-01</stageThreshold>
      <weakClassifiers>
        <_>
          <internalNodes>
            0 -1 14 2.1905425819568336e-04</internalNodes>
          <leafValues>
            9.0625000000000000e-01 -8.0000001192092896e-01</leafValues></_>
        <_>
          <internalNodes>
            0 -1 39 -2.3820505011826754e-03</internalNodes>
          <leafValues>
            1. -5.6495082378387451e-01</leafValues></_></weakClassifiers></_>
    <!-- stage 2 -->
    <_>
      <maxWeakCount>2</maxWeakCount>
      <stageThreshold>1.9512851536273956e-01</stageThreshold>
      <weakClassifiers>
        <_>
          <internalNodes>
            0 -1 35 -1.7487157601863146e-03</internalNodes>
          <leafValues>
            9.8347109556198120e-01 -6.4705884456634521e-01</leafValues></_>
        <_>
          <internalNodes>
            0 -1 44 6.8305889726616442e-05</internalNodes>
          <leafValues>
            -7.8834253549575806e-01 9.7906190156936646e-01</leafValues></_></weakClassifiers></_>
    <!-- stage 3 -->
    <_>
      <maxWeakCount>3</maxWeakCount>
      <stageThreshold>1.1273068189620972e+00</stageThreshold>
      <weakClassifiers>
        <_>
          <internalNodes>
            0 -1 18 -8.5802879184484482e-03</internalNodes>
          <leafValues>
            -8.1818181276321411e-01 9.2125982046127319e-01</leafValues></_>
        <_>
          <internalNodes>
            0 -1 10 -2.1447984181577340e-05</internalNodes>
          <leafValues>
            -6.2750011682510376e-01 9.4548869132995605e-01</leafValues></_>
        <_>
          <internalNodes>
            0 -1 19 2.2682165727019310e-03</internalNodes>
          <leafValues>
            -5.6736093759536743e-01 1.</leafValues></_></weakClassifiers></_>
    <!-- stage 4 -->
    <_>
      <maxWeakCount>2</maxWeakCount>
      <stageThreshold>3.0007883906364441e-01</stageThreshold>
      <weakClassifiers>
        <_>
          <internalNodes>
            0 -1 0 -5.6427391245961189e-04</internalNodes>
          <leafValues>
            -5.7142859697341919e-01 9.3548387289047241e-01</leafValues></_>
        <_>
          <internalNodes>
            0 -1 34 1.4158095000311732e-03</internalNodes>
          <leafValues>
            9.7715222835540771e-01 -6.3540500402450562e-01</leafValues></_></weakClassifiers></_>
    <!-- stage 5 -->
    <_>
      <maxWeakCount>2</maxWeakCount>
      <stageThreshold>3.6133480072021484e-01</stageThreshold>
      <weakClassifiers>
        <_>
          <internalNodes>
            0 -1 20 -2.1001899149268866e-03</internalNodes>
          <leafValues>
            1. -3.6363637447357178e-01</leafValues></_>
        <_>
          <internalNodes>
            0 -1 41 -1.1637946590781212e-04</internalNodes>
          <leafValues>
            9.2128944396972656e-01 -6.3866519927978516e-01</leafValues></_></weakClassifiers></_>
    <!-- stage 6 -->
    <_>
      <maxWeakCount>3</maxWeakCount>
      <stageThreshold>1.0540553331375122e+00</stageThreshold>
      <weakClassifiers>
        <_>
          <internalNodes>
            0 -1 40 -3.9913211367093027e-05</internalNodes>
          <leafValues>
            -5.7142859697341919e-01 9.3548387289047241e-01</leafValues></_>
        <_>
          <internalNodes>
            0 -1 3 -3.8955219089984894e-02</internalNodes>
          <leafValues>
            -8.8142853975296021e-01 8.5772323608398438e-01</leafValues></_>
        <_>
          <internalNodes>
            0 -1 23 3.2253866083920002e-03</internalNodes>
          <leafValues>
            -5.3980207443237305e-01 1.</leafValues></_></weakClassifiers></_>
    <!-- stage 7 -->
    <_>
      <maxWeakCount>3</maxWeakCount>
      <stageThreshold>9.5227730274200439e-01</stageThreshold>
      <weakClassifiers>
        <_>
          <internalNodes>
            0 -1 12 -3.0268955742940307e-04</internalNodes>
          <leafValues>
            -8.3333331346511841e-01 9.3650794029235840e-01</leafValues></_>
        <_>
          <internalNodes>
            0 -1 17 1.3003048952668905e-03</internalNodes>
          <leafValues>
            9.1563373804092407e-01 -8.8467198610305786e-01</leafValues></_>
        <_>
          <internalNodes>
            0 -1 43 1.0321893205400556e-04</internalNodes>
          <leafValues>
            9.0044134855270386e-01 -7.9547435045242310e-01</leafValues></_></weakClassifiers></_>
    <!-- stage 8 -->
    <_>
      <maxWeakCount>2</maxWeakCount>
      <stageThreshold>5.0119775533676147e-01</stageThreshold>
      <weakClassifiers>
        <_>
          <internalNodes>
            0 -1 8 3.2889668364077806e-04</internalNodes>
          <leafValues>
            -1.6666667163372040e-01 9.8245614767074585e-01</leafValues></_>
        <_>
          <internalNodes>
            0 -1 6 -3.2674794783815742e-04</internalNodes>
          <leafValues>
            -4.8125836253166199e-01 9.3402326107025146e-01</leafValues></_></weakClassifiers></_>
    <!-- stage 9 -->
    <_>
      <maxWeakCount>3</maxWeakCount>
      <stageThreshold>8.9775902032852173e-01</stageThreshold>
      <weakClassifiers>
        <_>
          <internalNodes>
            0 -1 22 -1.3797552324831486e-02</internalNodes>
          <leafValues>
            -8.1818181276321411e-01 9.2125982046127319e-01</leafValues></_>
        <_>
          <internalNodes>
            0 -1 15 -6.1107724905014038e-03</internalNodes>
          <leafValues>
            -8.9472693204879761e-01 8.9948338270187378e-01</leafValues></_>
        <_>
          <internalNodes>
            0 -1 26 -4.0552145219407976e-04</internalNodes>
          <leafValues>
            8.7122613191604614e-01 -7.8790593147277832e-01</leafValues></_></weakClassifiers></_>
    <!-- stage 10 -->
    <_>
      <maxWeakCount>3</maxWeakCount>
      <stageThreshold>9.5113712549209595e-01</stageThreshold>
      <weakClassifiers>
        <_>
          <internalNodes>
            0 -1 7 -9.4206415815278888e-04</internalNodes>
          <leafValues>
            -8.1818181276321411e-01 9.2125982046127319e-01</leafValues></_>
        <_>
          <internalNodes>
            0 -1 2 -3.3065088791772723e-04</internalNodes>
          <leafValues>
            -8.4163790941238403e-01 8.8282674551010132e-01</leafValues></_>
        <_>
          <internalNodes>
            0 -1 24 -2.5228885351680219e-04</internalNodes>
          <leafValues>
            8.8649219274520874e-01 -7.0108860731124878e-01</leafValues></_></weakClassifiers></_>
    <!-- stage 11 -->
    <_>
      <maxWeakCount>2</maxWeakCount>
      <stageThreshold>3.1370535492897034e-01</stageThreshold>
      <weakClassifiers>
        <_>
          <internalNodes>
            0 -1 27 -1.0532763553783298e-04</internalNodes>
          <leafValues>
            9.6610170602798462e-01 -3.0000001192092896e-01</leafValues></_>
        <_>
          <internalNodes>
            0 -1 5 -7.5316883157938719e-04</internalNodes>
          <leafValues>
            -6.5239632129669189e-01 9.1637504100799561e-01</leafValues></_></weakClassifiers></_>
    <!-- stage 12 -->
    <_>
      <maxWeakCount>1</maxWeakCount>
      <stageThreshold>8.9230769872665405e-01</stageThreshold>
      <weakClassifiers>
        <_>
          <internalNodes>
            0 -1 25 -2.6967050507664680e-02</internalNodes>
          <leafValues>
            -1. 8.9230769872665405e-01</leafValues></_></weakClassifiers></_>
    <!-- stage 13 -->
    <_>
      <maxWeakCount>1</maxWeakCount>
      <stageThreshold>8.9230769872665405e-01</stageThreshold>
      <weakClassifiers>
        <_>
          <internalNodes>
            0 -1 16 1.7794243991374969e-02</internalNodes>
          <leafValues>
            8.9230769872665405e-01 -1.</leafValues></_></weakClassifiers></_>
    <!-- stage 14 -->
    <_>
      <maxWeakCount>4</maxWeakCount>
      <stageThreshold>5.9726911783218384e-01</stageThreshold>
      <weakClassifiers>
        <_>
          <internalNodes>
            0 -1 42 -1.5030143549665809e-04</internalNodes>
          <leafValues>
            9.2063492536544800e-01 -6.6666668653488159e-01</leafValues></_>
        <_>
          <internalNodes>
            0 -1 33 -1.5904979780316353e-02</internalNodes>
          <leafValues>
            -1. 8.5381323099136353e-01</leafValues></_>
        <_>
          <internalNodes>
            0 -1 37 2.0722113549709320e-04</internalNodes>
          <leafValues>
            9.5990556478500366e-01 -5.8701503276824951e-01</leafValues></_>
        <_>
          <internalNodes>
            0 -1 30 -2.6699466630816460e-02</internalNodes>
          <leafValues>
            1. -5.9016400575637817e-01</leafValues></_></weakClassifiers></_>
    <!-- stage 15 -->
    <_>
      <maxWeakCount>1</maxWeakCount>
      <stageThreshold>9.5238095521926880e-01</stageThreshold>
      <weakClassifiers>
        <_>
          <internalNodes>
            0 -1 1 -1.1164590250700712e-04</internalNodes>
          <leafValues>
            -1. 9.5238095521926880e-01</leafValues></_></weakClassifiers></_>
    <!-- stage 16 -->
    <_>
      <maxWeakCount>2</maxWeakCount>
      <stageThreshold>2.5015041232109070e-01</stageThreshold>
      <weakClassifiers>
        <_>
          <internalNodes>
            0 -1 31 5.0883027142845094e-05</internalNodes>
          <leafValues>
            9.3548387289047241e-01 -5.7142859697341919e-01</leafValues></_>
        <_>
          <internalNodes>
            0 -1 9 1.7620524158701301e-04</internalNodes>
          <leafValues>
            9.3401193618774414e-01 -6.8533349037170410e-01</leafValues></_></weakClassifiers></_>
    <!-- stage 17 -->
    <_>
      <maxWeakCount>3</maxWeakCount>
      <stageThreshold>1.0293269157409668e+00</stageThreshold>
      <weakClassifiers>
        <_>
          <internalNodes>
            0 -1 13 1.6028049867600203e-04</internalNodes>
          <leafValues>
            9.2125982046127319e-01 -8.1818181276321411e-01</leafValues></_>
        <_>
          <internalNodes>
            0 -1 29 2.7764957398176193e-02</internalNodes>
          <leafValues>
            8.8282674551010132e-01 -8.4163790941238403e-01</leafValues></_>
        <_>
          <internalNodes>
            0 -1 28 -4.7091480155359022e-06</internalNodes>
          <leafValues>
            9.6468198299407959e-01 -7.1862983703613281e-01</leafValues></_></weakClassifiers></_>
    <!-- stage 18 -->
    <_>
      <maxWeakCount>3</maxWeakCount>
      <stageThreshold>9.1749632358551025e-01</stageThreshold>
      <weakClassifiers>
        <_>
          <internalNodes>
            0 -1 32 -1.4613134786486626e-02</internalNodes>
          <leafValues>
            -8.0000001192092896e-01 9.0625000000000000e-01</leafValues></_>
        <_>
          <internalNodes>
            0 -1 36 -2.0237513817846775e-03</internalNodes>
          <leafValues>
            -8.6426216363906860e-01 9.1449910402297974e-01</leafValues></_>
        <_>
          <internalNodes>
            0 -1 11 5.8215002354700118e-05</internalNodes>
          <leafValues>
            8.7550848722457886e-01 -7.4739283323287964e-01</leafValues></_></weakClassifiers></_>
    <!-- stage 19 -->
    <_>
      <maxWeakCount>1</maxWeakCount>
      <stageThreshold>9.2187500000000000e-01</stageThreshold>
      <weakClassifiers>
        <_>
          <internalNodes>
            0 -1 4 5.3459458285942674e-04</internalNodes>
          <leafValues>
            9.2187500000000000e-01 -1.</leafValues></_></weakClassifiers></_></stages>
  <features>
    <_>
      <rects>
        <_>
          0 0 9 3 -1.</_>
        <_>
          3 0 3 3 3.</_></rects>
      <tilted>0</tilted></_>
    <_>
      <rects>
        <_>
          0 1 3 2 -1.</_>
        <_>
          1 1 1 2 3.</_></rects>
      <tilted>0</tilted></_>
    <_>
      <rects>
        <_>
          0 1 1 12 -1.</_>
        <_>
          0 5 1 4 3.</_></rects>
      <tilted>0</tilted></_>
    <_>
      <rects>
        <_>
          0 2 40 8 -1.</_>
        <_>
          20 2 20 8 2.</_></rects>
      <tilted>0</tilted></_>
    <_>
      <rects>
        <_>
          0 9 1 12 -1.</_>
        <_>
          0 12 1 6 2.</_></rects>
      <tilted>0</tilted></_>
    <_>
      <rects>
        <_>
          0 11 1 24 -1.</_>
        <_>
          0 17 1 12 2.</_></rects>
      <tilted>0</tilted></_>
    <_>
      <rects>
        <_>
          0 16 37 4 -1.</_>
        <_>
          0 18 37 2 2.</_></rects>
      <tilted>0</tilted></_>
    <_>
      <rects>
        <_>
          0 18 3 6 -1.</_>
        <_>
          0 20 3 2 3.</_></rects>
      <tilted>0</tilted></_>
    <_>
      <rects>
        <_>
          0 36 1 20 -1.</_>
        <_>
          0 46 1 10 2.</_></rects>
      <tilted>0</tilted></_>
    <_>
      <rects>
        <_>
          0 48 2 9 -1.</_>
        <_>
          1 48 1 9 2.</_></rects>
      <tilted>0</tilted></_>
    <_>
      <rects>
        <_>
          1 2 1 4 -1.</_>
        <_>
          1 4 1 2 2.</_></rects>
      <tilted>0</tilted></_>
    <_>
      <rects>
        <_>
          1 55 4 5 -1.</_>
        <_>
          3 55 2 5 2.</_></rects>
      <tilted>0</tilted></_>
    <_>
      <rects>
        <_>
          2 2 2 2 -1.</_>
        <_>
          2 2 2 1 2.</_></rects>
      <tilted>1</tilted></_>
    <_>
      <rects>
        <_>
          3 3 1 3 -1.</_>
        <_>
          2 4 1 1 3.</_></rects>
      <tilted>1</tilted></_>
    <_>
      <rects>
        <_>
          5 0 3 2 -1.</_>
        <_>
          6 0 1 2 3.</_></rects>
      <tilted>0</tilted></_>
    <_>
      <rects>
        <_>
          6 54 15 6 -1.</_>
        <_>
          11 54 5 6 3.</_></rects>
      <tilted>0</tilted></_>
    <_>
      <rects>
        <_>
          9 3 26 4 -1.</_>
        <_>
          22 3 13 4 2.</_></rects>
      <tilted>0</tilted></_>
    <_>
      <rects>
        <_>
          9 50 1 6 -1.</_>
        <_>
          9 50 1 3 2.</_></rects>
      <tilted>1</tilted></_>
    <_>
      <rects>
        <_>
          10 0 24 6 -1.</_>
        <_>
          16 0 12 6 2.</_></rects>
      <tilted>0</tilted></_>
    <_>
      <rects>
        <_>
          10 31 23 16 -1.</_>
        <_>
          10 39 23 8 2.</_></rects>
      <tilted>0</tilted></_>
    <_>
      <rects>
        <_>
          13 16 11 42 -1.</_>
        <_>
          13 30 11 14 3.</_></rects>
      <tilted>0</tilted></_>
    <_>
      <rects>
        <_>
          14 26 1 34 -1.</_>
        <_>
          14 43 1 17 2.</_></rects>
      <tilted>0</tilted></_>
    <_>
      <rects>
        <_>
          15 1 2 40 -1.</_>
        <_>
          15 21 2 20 2.</_></rects>
      <tilted>0</tilted></_>
    <_>
      <rects>
        <_>
          21 50 19 8 -1.</_>
        <_>
          21 54 19 4 2.</_></rects>
      <tilted>0</tilted></_>
    <_>
      <rects>
        <_>
          22 0 6 8 -1.</_>
        <_>
          25 0 3 8 2.</_></rects>
      <tilted>0</tilted></_>
    <_>
      <rects>
        <_>
          22 2 2 52 -1.</_>
        <_>
          22 28 2 26 2.</_></rects>
      <tilted>0</tilted></_>
    <_>
      <rects>
        <_>
          23 1 6 8 -1.</_>
        <_>
          26 1 3 8 2.</_></rects>
      <tilted>0</tilted></_>
    <_>
      <rects>
        <_>
          24 0 4 8 -1.</_>
        <_>
          26 0 2 8 2.</_></rects>
      <tilted>0</tilted></_>
    <_>
      <rects>
        <_>
          25 0 2 8 -1.</_>
        <_>
          26 0 1 8 2.</_></rects>
      <tilted>0</tilted></_>
    <_>
      <rects>
        <_>
          27 15 8 33 -1.</_>
        <_>
          27 26 8 11 3.</_></rects>
      <tilted>0</tilted></_>
    <_>
      <rects>
        <_>
          27 24 13 36 -1.</_>
        <_>
          27 33 13 18 2.</_></rects>
      <tilted>0</tilted></_>
    <_>
      <rects>
        <_>
          30 0 3 1 -1.</_>
        <_>
          31 0 1 1 3.</_></rects>
      <tilted>0</tilted></_>
    <_>
      <rects>
        <_>
          31 3 2 30 -1.</_>
        <_>
          31 3 2 15 2.</_></rects>
      <tilted>1</tilted></_>
    <_>
      <rects>
        <_>
          31 31 9 6 -1.</_>
        <_>
          31 31 9 3 2.</_></rects>
      <tilted>1</tilted></_>
    <_>
      <rects>
        <_>
          33 15 6 42 -1.</_>
        <_>
          35 29 2 14 9.</_></rects>
      <tilted>0</tilted></_>
    <_>
      <rects>
        <_>
          33 20 7 40 -1.</_>
        <_>
          33 30 7 20 2.</_></rects>
      <tilted>0</tilted></_>
    <_>
      <rects>
        <_>
          33 50 2 6 -1.</_>
        <_>
          33 50 1 6 2.</_></rects>
      <tilted>1</tilted></_>
    <_>
      <rects>
        <_>
          35 9 3 8 -1.</_>
        <_>
          35 11 3 4 2.</_></rects>
      <tilted>0</tilted></_>
    <_>
      <rects>
        <_>
          35 38 4 22 -1.</_>
        <_>
          35 49 4 11 2.</_></rects>
      <tilted>0</tilted></_>
    <_>
      <rects>
        <_>
          37 28 3 32 -1.</_>
        <_>
          37 36 3 16 2.</_></rects>
      <tilted>0</tilted></_>
    <_>
      <rects>
        <_>
          38 0 2 2 -1.</_>
        <_>
          39 0 1 2 2.</_></rects>
      <tilted>0</tilted></_>
    <_>
      <rects>
        <_>
          38 15 1 45 -1.</_>
        <_>
          38 30 1 15 3.</_></rects>
      <tilted>0</tilted></_>
    <_>
      <rects>
        <_>
          38 24 2 36 -1.</_>
        <_>
          38 33 2 18 2.</_></rects>
      <tilted>0</tilted></_>
    <_>
      <rects>
        <_>
          38 37 1 3 -1.</_>
        <_>
          38 38 1 1 3.</_></rects>
      <tilted>0</tilted></_>
    <_>
      <rects>
        <_>
          39 48 1 12 -1.</_>
        <_>
          39 54 1 6 2.</_></rects>
      <tilted>0</tilted></_></features></cascade>
</opencv_storage>
