<?xml version="1.0"?>
<opencv_storage>
<cascade>
  <stageType>BOOST</stageType>
  <featureType>HAAR</featureType>
  <height>30</height>
  <width>20</width>
  <stageParams>
    <boostType>GAB</boostType>
    <minHitRate>9.9500000476837158e-01</minHitRate>
    <maxFalseAlarm>5.0000000000000000e-01</maxFalseAlarm>
    <weightTrimRate>9.4999999999999996e-01</weightTrimRate>
    <maxDepth>1</maxDepth>
    <maxWeakCount>100</maxWeakCount></stageParams>
  <featureParams>
    <maxCatCount>0</maxCatCount>
    <featSize>1</featSize>
    <mode>ALL</mode></featureParams>
  <stageNum>21</stageNum>
  <stages>
    <!-- stage 0 -->
    <_>
      <maxWeakCount>4</maxWeakCount>
      <stageThreshold>-9.8512089252471924e-01</stageThreshold>
      <weakClassifiers>
        <_>
          <internalNodes>
            0 -1 87 -3.5571932792663574e-02</internalNodes>
          <leafValues>
            7.2000002861022949e-01 -6.2666666507720947e-01</leafValues></_>
        <_>
          <internalNodes>
            0 -1 34 -1.0505959391593933e-02</internalNodes>
          <leafValues>
            7.9009521007537842e-01 -5.4336673021316528e-01</leafValues></_>
        <_>
          <internalNodes>
            0 -1 32 5.3910557180643082e-03</internalNodes>
          <leafValues>
            -4.7713765501976013e-01 7.2458231449127197e-01</leafValues></_>
        <_>
          <internalNodes>
            0 -1 73 3.0023336410522461e-02</internalNodes>
          <leafValues>
            -5.3966981172561646e-01 7.0426893234252930e-01</leafValues></_></weakClassifiers></_>
    <!-- stage 1 -->
    <_>
      <maxWeakCount>4</maxWeakCount>
      <stageThreshold>-6.7664578557014465e-02</stageThreshold>
      <weakClassifiers>
        <_>
          <internalNodes>
            0 -1 75 -2.4518888443708420e-02</internalNodes>
          <leafValues>
            7.0873785018920898e-01 -6.6666668653488159e-01</leafValues></_>
        <_>
          <internalNodes>
            0 -1 67 -2.8027813881635666e-02</internalNodes>
          <leafValues>
            5.3685784339904785e-01 -8.0289793014526367e-01</leafValues></_>
        <_>
          <internalNodes>
            0 -1 35 -1.4274558052420616e-02</internalNodes>
          <leafValues>
            8.7295830249786377e-01 -5.2756303548812866e-01</leafValues></_>
        <_>
          <internalNodes>
            0 -1 41 4.3690474703907967e-03</internalNodes>
          <leafValues>
            -6.4267456531524658e-01 5.8970725536346436e-01</leafValues></_></weakClassifiers></_>
    <!-- stage 2 -->
    <_>
      <maxWeakCount>5</maxWeakCount>
      <stageThreshold>-3.0157443881034851e-01</stageThreshold>
      <weakClassifiers>
        <_>
          <internalNodes>
            0 -1 0 1.8781617283821106e-01</internalNodes>
          <leafValues>
            -7.0992368459701538e-01 6.5296804904937744e-01</leafValues></_>
        <_>
          <internalNodes>
            0 -1 49 -1.6975305974483490e-02</internalNodes>
          <leafValues>
            7.6617932319641113e-01 -5.5095887184143066e-01</leafValues></_>
        <_>
          <internalNodes>
            0 -1 63 3.8183826953172684e-02</internalNodes>
          <leafValues>
            -3.7364530563354492e-01 8.0521643161773682e-01</leafValues></_>
        <_>
          <internalNodes>
            0 -1 68 -2.3264409974217415e-03</internalNodes>
          <leafValues>
            7.3832571506500244e-01 -3.6475881934165955e-01</leafValues></_>
        <_>
          <internalNodes>
            0 -1 106 7.2961178375408053e-05</internalNodes>
          <leafValues>
            -4.9010995030403137e-01 5.9462767839431763e-01</leafValues></_></weakClassifiers></_>
    <!-- stage 3 -->
    <_>
      <maxWeakCount>4</maxWeakCount>
      <stageThreshold>2.0873941481113434e-02</stageThreshold>
      <weakClassifiers>
        <_>
          <internalNodes>
            0 -1 7 1.9468615949153900e-01</internalNodes>
          <leafValues>
            -5.8536583185195923e-01 7.8494626283645630e-01</leafValues></_>
        <_>
          <internalNodes>
            0 -1 98 3.0388351529836655e-02</internalNodes>
          <leafValues>
            4.1309541463851929e-01 -9.2720931768417358e-01</leafValues></_>
        <_>
          <internalNodes>
            0 -1 27 -6.0145147144794464e-03</internalNodes>
          <leafValues>
            6.8164420127868652e-01 -4.9929055571556091e-01</leafValues></_>
        <_>
          <internalNodes>
            0 -1 77 -7.3840981349349022e-03</internalNodes>
          <leafValues>
            6.9243496656417847e-01 -4.7943481802940369e-01</leafValues></_></weakClassifiers></_>
    <!-- stage 4 -->
    <_>
      <maxWeakCount>6</maxWeakCount>
      <stageThreshold>-4.7895044088363647e-01</stageThreshold>
      <weakClassifiers>
        <_>
          <internalNodes>
            0 -1 2 7.1872636675834656e-02</internalNodes>
          <leafValues>
            -4.7297295928001404e-01 5.9405940771102905e-01</leafValues></_>
        <_>
          <internalNodes>
            0 -1 94 3.7261039018630981e-02</internalNodes>
          <leafValues>
            -3.8169685006141663e-01 7.8634613752365112e-01</leafValues></_>
        <_>
          <internalNodes>
            0 -1 84 5.3012184798717499e-03</internalNodes>
          <leafValues>
            -2.4142993986606598e-01 8.8292324542999268e-01</leafValues></_>
        <_>
          <internalNodes>
            0 -1 123 8.6080539040267467e-04</internalNodes>
          <leafValues>
            3.0093732476234436e-01 -9.8348021507263184e-01</leafValues></_>
        <_>
          <internalNodes>
            0 -1 83 1.1239423183724284e-03</internalNodes>
          <leafValues>
            -3.7902224063873291e-01 7.7113676071166992e-01</leafValues></_>
        <_>
          <internalNodes>
            0 -1 51 -4.3632262386381626e-03</internalNodes>
          <leafValues>
            7.2927904129028320e-01 -3.7179815769195557e-01</leafValues></_></weakClassifiers></_>
    <!-- stage 5 -->
    <_>
      <maxWeakCount>5</maxWeakCount>
      <stageThreshold>-4.4962927699089050e-01</stageThreshold>
      <weakClassifiers>
        <_>
          <internalNodes>
            0 -1 30 1.6457010060548782e-02</internalNodes>
          <leafValues>
            3.4459459781646729e-01 -9.6296298503875732e-01</leafValues></_>
        <_>
          <internalNodes>
            0 -1 16 -6.1879009008407593e-03</internalNodes>
          <leafValues>
            7.4603390693664551e-01 -3.4011456370353699e-01</leafValues></_>
        <_>
          <internalNodes>
            0 -1 78 -2.2295792587101460e-03</internalNodes>
          <leafValues>
            6.9396436214447021e-01 -3.4424871206283569e-01</leafValues></_>
        <_>
          <internalNodes>
            0 -1 33 4.7572460025548935e-03</internalNodes>
          <leafValues>
            -5.5228513479232788e-01 4.9662211537361145e-01</leafValues></_>
        <_>
          <internalNodes>
            0 -1 20 6.9442540407180786e-03</internalNodes>
          <leafValues>
            -3.4576231241226196e-01 6.6383361816406250e-01</leafValues></_></weakClassifiers></_>
    <!-- stage 6 -->
    <_>
      <maxWeakCount>5</maxWeakCount>
      <stageThreshold>-3.8104492425918579e-01</stageThreshold>
      <weakClassifiers>
        <_>
          <internalNodes>
            0 -1 3 3.5994291305541992e-01</internalNodes>
          <leafValues>
            -4.4099378585815430e-01 6.4021164178848267e-01</leafValues></_>
        <_>
          <internalNodes>
            0 -1 50 6.5984919667243958e-02</internalNodes>
          <leafValues>
            -3.8086575269699097e-01 6.4703422784805298e-01</leafValues></_>
        <_>
          <internalNodes>
            0 -1 116 -8.6038268636912107e-04</internalNodes>
          <leafValues>
            -8.1517809629440308e-01 3.3051264286041260e-01</leafValues></_>
        <_>
          <internalNodes>
            0 -1 43 -2.0173126831650734e-03</internalNodes>
          <leafValues>
            6.0011863708496094e-01 -3.8320854306221008e-01</leafValues></_>
        <_>
          <internalNodes>
            0 -1 17 -8.4814953152090311e-04</internalNodes>
          <leafValues>
            5.0679928064346313e-01 -4.6990409493446350e-01</leafValues></_></weakClassifiers></_>
    <!-- stage 7 -->
    <_>
      <maxWeakCount>4</maxWeakCount>
      <stageThreshold>-1.7064210772514343e-01</stageThreshold>
      <weakClassifiers>
        <_>
          <internalNodes>
            0 -1 1 3.3453094959259033e-01</internalNodes>
          <leafValues>
            -4.5945945382118225e-01 5.8415842056274414e-01</leafValues></_>
        <_>
          <internalNodes>
            0 -1 9 -3.7346411496400833e-02</internalNodes>
          <leafValues>
            7.6278978586196899e-01 -3.1107327342033386e-01</leafValues></_>
        <_>
          <internalNodes>
            0 -1 115 -1.3738346751779318e-03</internalNodes>
          <leafValues>
            -6.5716242790222168e-01 3.7814760208129883e-01</leafValues></_>
        <_>
          <internalNodes>
            0 -1 121 7.7169953146949410e-04</internalNodes>
          <leafValues>
            2.2858881950378418e-01 -8.5212010145187378e-01</leafValues></_></weakClassifiers></_>
    <!-- stage 8 -->
    <_>
      <maxWeakCount>5</maxWeakCount>
      <stageThreshold>-4.4388154149055481e-01</stageThreshold>
      <weakClassifiers>
        <_>
          <internalNodes>
            0 -1 65 -3.1363699585199356e-02</internalNodes>
          <leafValues>
            6.8918919563293457e-01 -2.5742575526237488e-01</leafValues></_>
        <_>
          <internalNodes>
            0 -1 71 -4.1558086872100830e-02</internalNodes>
          <leafValues>
            3.5116273164749146e-01 -8.3035016059875488e-01</leafValues></_>
        <_>
          <internalNodes>
            0 -1 55 -3.3578830771148205e-03</internalNodes>
          <leafValues>
            5.8774149417877197e-01 -3.7279936671257019e-01</leafValues></_>
        <_>
          <internalNodes>
            0 -1 64 -8.9752255007624626e-03</internalNodes>
          <leafValues>
            8.0706411600112915e-01 -2.6416641473770142e-01</leafValues></_>
        <_>
          <internalNodes>
            0 -1 110 2.3834304010961205e-04</internalNodes>
          <leafValues>
            3.3511751890182495e-01 -8.4726768732070923e-01</leafValues></_></weakClassifiers></_>
    <!-- stage 9 -->
    <_>
      <maxWeakCount>5</maxWeakCount>
      <stageThreshold>-8.4907448291778564e-01</stageThreshold>
      <weakClassifiers>
        <_>
          <internalNodes>
            0 -1 47 -3.0408278107643127e-03</internalNodes>
          <leafValues>
            3.6111110448837280e-01 -8.7096774578094482e-01</leafValues></_>
        <_>
          <internalNodes>
            0 -1 23 2.4274516850709915e-02</internalNodes>
          <leafValues>
            -4.0595450997352600e-01 5.2671301364898682e-01</leafValues></_>
        <_>
          <internalNodes>
            0 -1 113 -2.0675823907367885e-04</internalNodes>
          <leafValues>
            -8.9883047342300415e-01 2.8635117411613464e-01</leafValues></_>
        <_>
          <internalNodes>
            0 -1 91 9.9968947470188141e-03</internalNodes>
          <leafValues>
            -3.3694374561309814e-01 7.9700756072998047e-01</leafValues></_>
        <_>
          <internalNodes>
            0 -1 117 5.6297772971447557e-05</internalNodes>
          <leafValues>
            2.8597837686538696e-01 -7.5363850593566895e-01</leafValues></_></weakClassifiers></_>
    <!-- stage 10 -->
    <_>
      <maxWeakCount>6</maxWeakCount>
      <stageThreshold>-5.2069586515426636e-01</stageThreshold>
      <weakClassifiers>
        <_>
          <internalNodes>
            0 -1 28 4.0689948946237564e-04</internalNodes>
          <leafValues>
            3.2881355285644531e-01 -8.5454547405242920e-01</leafValues></_>
        <_>
          <internalNodes>
            0 -1 54 5.9645054861903191e-03</internalNodes>
          <leafValues>
            -2.6297533512115479e-01 7.6957529783248901e-01</leafValues></_>
        <_>
          <internalNodes>
            0 -1 18 -6.4018620178103447e-03</internalNodes>
          <leafValues>
            4.3044286966323853e-01 -4.6458047628402710e-01</leafValues></_>
        <_>
          <internalNodes>
            0 -1 42 1.7466707155108452e-02</internalNodes>
          <leafValues>
            -3.2784774899482727e-01 7.2377562522888184e-01</leafValues></_>
        <_>
          <internalNodes>
            0 -1 86 4.8744790256023407e-03</internalNodes>
          <leafValues>
            -3.1267961859703064e-01 6.3827425241470337e-01</leafValues></_>
        <_>
          <internalNodes>
            0 -1 69 -6.5252906642854214e-03</internalNodes>
          <leafValues>
            7.8003543615341187e-01 -2.4471400678157806e-01</leafValues></_></weakClassifiers></_>
    <!-- stage 11 -->
    <_>
      <maxWeakCount>7</maxWeakCount>
      <stageThreshold>-4.6934187412261963e-01</stageThreshold>
      <weakClassifiers>
        <_>
          <internalNodes>
            0 -1 118 -7.6340381056070328e-03</internalNodes>
          <leafValues>
            -9.2592591047286987e-01 3.3783784508705139e-01</leafValues></_>
        <_>
          <internalNodes>
            0 -1 29 3.9479986298829317e-04</internalNodes>
          <leafValues>
            2.3259109258651733e-01 -6.8318498134613037e-01</leafValues></_>
        <_>
          <internalNodes>
            0 -1 96 5.1441364921629429e-03</internalNodes>
          <leafValues>
            -2.5116071105003357e-01 7.7179485559463501e-01</leafValues></_>
        <_>
          <internalNodes>
            0 -1 99 -1.1264879256486893e-02</internalNodes>
          <leafValues>
            7.4728268384933472e-01 -2.3945659399032593e-01</leafValues></_>
        <_>
          <internalNodes>
            0 -1 122 -4.8787122068461031e-05</internalNodes>
          <leafValues>
            3.5682061314582825e-01 -5.0880640745162964e-01</leafValues></_>
        <_>
          <internalNodes>
            0 -1 70 5.8019398711621761e-03</internalNodes>
          <leafValues>
            -2.9778081178665161e-01 6.3550412654876709e-01</leafValues></_>
        <_>
          <internalNodes>
            0 -1 4 3.8721043616533279e-02</internalNodes>
          <leafValues>
            -6.0819327831268311e-01 4.4596019387245178e-01</leafValues></_></weakClassifiers></_>
    <!-- stage 12 -->
    <_>
      <maxWeakCount>7</maxWeakCount>
      <stageThreshold>-4.6873515844345093e-01</stageThreshold>
      <weakClassifiers>
        <_>
          <internalNodes>
            0 -1 11 4.1790626710280776e-04</internalNodes>
          <leafValues>
            3.9230769872665405e-01 -5.7777780294418335e-01</leafValues></_>
        <_>
          <internalNodes>
            0 -1 107 -9.9872413557022810e-04</internalNodes>
          <leafValues>
            4.2462572455406189e-01 -4.1659155488014221e-01</leafValues></_>
        <_>
          <internalNodes>
            0 -1 81 1.2600539252161980e-02</internalNodes>
          <leafValues>
            -2.2323310375213623e-01 8.3660495281219482e-01</leafValues></_>
        <_>
          <internalNodes>
            0 -1 26 9.4474926590919495e-03</internalNodes>
          <leafValues>
            -5.1059705018997192e-01 3.7075376510620117e-01</leafValues></_>
        <_>
          <internalNodes>
            0 -1 76 3.8533541373908520e-03</internalNodes>
          <leafValues>
            -2.6554116606712341e-01 8.0622643232345581e-01</leafValues></_>
        <_>
          <internalNodes>
            0 -1 6 -9.0179737890139222e-04</internalNodes>
          <leafValues>
            4.5305266976356506e-01 -4.6717765927314758e-01</leafValues></_>
        <_>
          <internalNodes>
            0 -1 120 -1.8656143220141530e-04</internalNodes>
          <leafValues>
            -8.0093538761138916e-01 2.6961505413055420e-01</leafValues></_></weakClassifiers></_>
    <!-- stage 13 -->
    <_>
      <maxWeakCount>12</maxWeakCount>
      <stageThreshold>-8.6122620105743408e-01</stageThreshold>
      <weakClassifiers>
        <_>
          <internalNodes>
            0 -1 56 -1.6151354648172855e-03</internalNodes>
          <leafValues>
            7.3831772804260254e-01 -1.1934156715869904e-01</leafValues></_>
        <_>
          <internalNodes>
            0 -1 95 3.0352437868714333e-02</internalNodes>
          <leafValues>
            -2.3582088947296143e-01 6.2400203943252563e-01</leafValues></_>
        <_>
          <internalNodes>
            0 -1 102 3.8476174813695252e-04</internalNodes>
          <leafValues>
            2.9661169648170471e-01 -6.1365646123886108e-01</leafValues></_>
        <_>
          <internalNodes>
            0 -1 53 7.2011975571513176e-03</internalNodes>
          <leafValues>
            -2.2063900530338287e-01 6.7221385240554810e-01</leafValues></_>
        <_>
          <internalNodes>
            0 -1 72 -1.1240841820836067e-02</internalNodes>
          <leafValues>
            8.1748962402343750e-01 -2.1622015535831451e-01</leafValues></_>
        <_>
          <internalNodes>
            0 -1 100 6.4093573018908501e-04</internalNodes>
          <leafValues>
            -3.5669410228729248e-01 5.1678949594497681e-01</leafValues></_>
        <_>
          <internalNodes>
            0 -1 36 -2.8622050303965807e-03</internalNodes>
          <leafValues>
            7.3333030939102173e-01 -3.2662424445152283e-01</leafValues></_>
        <_>
          <internalNodes>
            0 -1 14 1.1015779455192387e-04</internalNodes>
          <leafValues>
            3.2436758279800415e-01 -7.1387141942977905e-01</leafValues></_>
        <_>
          <internalNodes>
            0 -1 44 -5.4218375589698553e-04</internalNodes>
          <leafValues>
            5.2789664268493652e-01 -3.9419543743133545e-01</leafValues></_>
        <_>
          <internalNodes>
            0 -1 52 8.8369401055388153e-05</internalNodes>
          <leafValues>
            3.7581923604011536e-01 -5.6133145093917847e-01</leafValues></_>
        <_>
          <internalNodes>
            0 -1 12 -6.4067258790601045e-05</internalNodes>
          <leafValues>
            -6.3675248622894287e-01 3.2904824614524841e-01</leafValues></_>
        <_>
          <internalNodes>
            0 -1 74 1.7001681262627244e-03</internalNodes>
          <leafValues>
            -2.6705175638198853e-01 8.6346381902694702e-01</leafValues></_></weakClassifiers></_>
    <!-- stage 14 -->
    <_>
      <maxWeakCount>8</maxWeakCount>
      <stageThreshold>-3.6751013994216919e-01</stageThreshold>
      <weakClassifiers>
        <_>
          <internalNodes>
            0 -1 24 -2.0919629605486989e-04</internalNodes>
          <leafValues>
            -3.8345864415168762e-01 4.6543779969215393e-01</leafValues></_>
        <_>
          <internalNodes>
            0 -1 59 -4.9209967255592346e-04</internalNodes>
          <leafValues>
            4.9037283658981323e-01 -3.7780651450157166e-01</leafValues></_>
        <_>
          <internalNodes>
            0 -1 88 -1.3673235662281513e-03</internalNodes>
          <leafValues>
            5.3573954105377197e-01 -3.4175071120262146e-01</leafValues></_>
        <_>
          <internalNodes>
            0 -1 60 -7.6238606125116348e-03</internalNodes>
          <leafValues>
            8.1469589471817017e-01 -2.8244355320930481e-01</leafValues></_>
        <_>
          <internalNodes>
            0 -1 97 5.6396354921162128e-04</internalNodes>
          <leafValues>
            3.5782518982887268e-01 -5.8587062358856201e-01</leafValues></_>
        <_>
          <internalNodes>
            0 -1 85 6.8507073447108269e-03</internalNodes>
          <leafValues>
            -2.8008493781089783e-01 6.6466408967971802e-01</leafValues></_>
        <_>
          <internalNodes>
            0 -1 13 7.0436140522360802e-03</internalNodes>
          <leafValues>
            -2.2683845460414886e-01 8.0907195806503296e-01</leafValues></_>
        <_>
          <internalNodes>
            0 -1 117 -4.1653191146906465e-05</internalNodes>
          <leafValues>
            3.9915952086448669e-01 -4.8382270336151123e-01</leafValues></_></weakClassifiers></_>
    <!-- stage 15 -->
    <_>
      <maxWeakCount>7</maxWeakCount>
      <stageThreshold>-7.9879808425903320e-01</stageThreshold>
      <weakClassifiers>
        <_>
          <internalNodes>
            0 -1 46 2.1217898465692997e-03</internalNodes>
          <leafValues>
            4.1666665673255920e-01 -4.5454546809196472e-01</leafValues></_>
        <_>
          <internalNodes>
            0 -1 15 -1.8085232295561582e-04</internalNodes>
          <leafValues>
            -5.4472345113754272e-01 2.9239082336425781e-01</leafValues></_>
        <_>
          <internalNodes>
            0 -1 31 1.3645817525684834e-03</internalNodes>
          <leafValues>
            -5.1278942823410034e-01 3.2930168509483337e-01</leafValues></_>
        <_>
          <internalNodes>
            0 -1 48 -9.1859549283981323e-03</internalNodes>
          <leafValues>
            8.2201981544494629e-01 -2.4625761806964874e-01</leafValues></_>
        <_>
          <internalNodes>
            0 -1 10 -5.2647589473053813e-04</internalNodes>
          <leafValues>
            3.2706722617149353e-01 -6.0612910985946655e-01</leafValues></_>
        <_>
          <internalNodes>
            0 -1 105 -1.5370293986052275e-03</internalNodes>
          <leafValues>
            -7.7650350332260132e-01 2.8725269436836243e-01</leafValues></_>
        <_>
          <internalNodes>
            0 -1 79 -8.8870767503976822e-03</internalNodes>
          <leafValues>
            4.6831825375556946e-01 -4.3490898609161377e-01</leafValues></_></weakClassifiers></_>
    <!-- stage 16 -->
    <_>
      <maxWeakCount>8</maxWeakCount>
      <stageThreshold>-6.4871996641159058e-01</stageThreshold>
      <weakClassifiers>
        <_>
          <internalNodes>
            0 -1 22 1.5244644600898027e-04</internalNodes>
          <leafValues>
            3.4767025709152222e-01 -6.6197180747985840e-01</leafValues></_>
        <_>
          <internalNodes>
            0 -1 57 -1.6984853427857161e-03</internalNodes>
          <leafValues>
            5.2827978134155273e-01 -3.4166672825813293e-01</leafValues></_>
        <_>
          <internalNodes>
            0 -1 19 -1.7743567004799843e-03</internalNodes>
          <leafValues>
            4.7296249866485596e-01 -3.9586707949638367e-01</leafValues></_>
        <_>
          <internalNodes>
            0 -1 61 -2.3154211230576038e-03</internalNodes>
          <leafValues>
            5.6881237030029297e-01 -3.4604138135910034e-01</leafValues></_>
        <_>
          <internalNodes>
            0 -1 111 8.6265028221532702e-04</internalNodes>
          <leafValues>
            -2.8415963053703308e-01 6.1774480342864990e-01</leafValues></_>
        <_>
          <internalNodes>
            0 -1 8 1.2156716547906399e-03</internalNodes>
          <leafValues>
            2.0464789867401123e-01 -8.8060653209686279e-01</leafValues></_>
        <_>
          <internalNodes>
            0 -1 38 1.8040863797068596e-02</internalNodes>
          <leafValues>
            -8.9521610736846924e-01 1.6947811841964722e-01</leafValues></_>
        <_>
          <internalNodes>
            0 -1 90 -1.4094174839556217e-03</internalNodes>
          <leafValues>
            2.3191769421100616e-01 -7.0882123708724976e-01</leafValues></_></weakClassifiers></_>
    <!-- stage 17 -->
    <_>
      <maxWeakCount>6</maxWeakCount>
      <stageThreshold>-5.9902530908584595e-01</stageThreshold>
      <weakClassifiers>
        <_>
          <internalNodes>
            0 -1 58 -4.2382694664411247e-04</internalNodes>
          <leafValues>
            6.6013073921203613e-01 -2.5888323783874512e-01</leafValues></_>
        <_>
          <internalNodes>
            0 -1 82 2.5036565493792295e-03</internalNodes>
          <leafValues>
            -2.6038342714309692e-01 7.5068169832229614e-01</leafValues></_>
        <_>
          <internalNodes>
            0 -1 45 -5.9843109920620918e-03</internalNodes>
          <leafValues>
            5.0115585327148438e-01 -3.8500389456748962e-01</leafValues></_>
        <_>
          <internalNodes>
            0 -1 114 7.9050980275496840e-04</internalNodes>
          <leafValues>
            -4.8729711771011353e-01 4.4470217823982239e-01</leafValues></_>
        <_>
          <internalNodes>
            0 -1 66 -5.2727479487657547e-02</internalNodes>
          <leafValues>
            -7.7787703275680542e-01 2.9989066720008850e-01</leafValues></_>
        <_>
          <internalNodes>
            0 -1 80 -1.7617579549551010e-02</internalNodes>
          <leafValues>
            5.7270878553390503e-01 -4.2636227607727051e-01</leafValues></_></weakClassifiers></_>
    <!-- stage 18 -->
    <_>
      <maxWeakCount>7</maxWeakCount>
      <stageThreshold>-7.7694237232208252e-01</stageThreshold>
      <weakClassifiers>
        <_>
          <internalNodes>
            0 -1 21 2.4348355829715729e-02</internalNodes>
          <leafValues>
            3.2885906100273132e-01 -9.2307692766189575e-01</leafValues></_>
        <_>
          <internalNodes>
            0 -1 5 1.1111602361779660e-04</internalNodes>
          <leafValues>
            2.4174249172210693e-01 -7.1073144674301147e-01</leafValues></_>
        <_>
          <internalNodes>
            0 -1 25 1.8719317391514778e-02</internalNodes>
          <leafValues>
            -2.2746035456657410e-01 9.4073659181594849e-01</leafValues></_>
        <_>
          <internalNodes>
            0 -1 40 -1.6685009468346834e-03</internalNodes>
          <leafValues>
            5.7390487194061279e-01 -3.3214858174324036e-01</leafValues></_>
        <_>
          <internalNodes>
            0 -1 119 1.7359899356961250e-04</internalNodes>
          <leafValues>
            3.5330411791801453e-01 -6.2261676788330078e-01</leafValues></_>
        <_>
          <internalNodes>
            0 -1 103 5.4406741401180625e-04</internalNodes>
          <leafValues>
            1.8381740152835846e-01 -9.4946223497390747e-01</leafValues></_>
        <_>
          <internalNodes>
            0 -1 62 -5.2472022362053394e-03</internalNodes>
          <leafValues>
            6.0333830118179321e-01 -3.9720556139945984e-01</leafValues></_></weakClassifiers></_>
    <!-- stage 19 -->
    <_>
      <maxWeakCount>6</maxWeakCount>
      <stageThreshold>-9.4923043251037598e-01</stageThreshold>
      <weakClassifiers>
        <_>
          <internalNodes>
            0 -1 39 -7.1948836557567120e-04</internalNodes>
          <leafValues>
            -3.8235294818878174e-01 4.7663551568984985e-01</leafValues></_>
        <_>
          <internalNodes>
            0 -1 119 -9.5537368906661868e-04</internalNodes>
          <leafValues>
            -8.1053853034973145e-01 2.4532288312911987e-01</leafValues></_>
        <_>
          <internalNodes>
            0 -1 109 5.7222566101700068e-04</internalNodes>
          <leafValues>
            -4.0187570452690125e-01 5.2349621057510376e-01</leafValues></_>
        <_>
          <internalNodes>
            0 -1 92 5.8170650154352188e-03</internalNodes>
          <leafValues>
            -4.5382332801818848e-01 4.5234170556068420e-01</leafValues></_>
        <_>
          <internalNodes>
            0 -1 37 -4.3127024546265602e-03</internalNodes>
          <leafValues>
            7.8282296657562256e-01 -3.5652881860733032e-01</leafValues></_>
        <_>
          <internalNodes>
            0 -1 124 5.4112129873828962e-05</internalNodes>
          <leafValues>
            4.0002748370170593e-01 -5.9559351205825806e-01</leafValues></_></weakClassifiers></_>
    <!-- stage 20 -->
    <_>
      <maxWeakCount>6</maxWeakCount>
      <stageThreshold>-6.1480039358139038e-01</stageThreshold>
      <weakClassifiers>
        <_>
          <internalNodes>
            0 -1 89 3.5163685679435730e-02</internalNodes>
          <leafValues>
            -1.5481171011924744e-01 7.8378379344940186e-01</leafValues></_>
        <_>
          <internalNodes>
            0 -1 108 -5.8254081523045897e-04</internalNodes>
          <leafValues>
            5.1044440269470215e-01 -3.9258447289466858e-01</leafValues></_>
        <_>
          <internalNodes>
            0 -1 104 1.0893880971707404e-04</internalNodes>
          <leafValues>
            3.4670543670654297e-01 -5.7804816961288452e-01</leafValues></_>
        <_>
          <internalNodes>
            0 -1 112 -1.3919181947130710e-04</internalNodes>
          <leafValues>
            -4.9907907843589783e-01 3.8059547543525696e-01</leafValues></_>
        <_>
          <internalNodes>
            0 -1 93 9.0028741396963596e-04</internalNodes>
          <leafValues>
            -3.9613768458366394e-01 5.7463836669921875e-01</leafValues></_>
        <_>
          <internalNodes>
            0 -1 101 -7.9145841300487518e-04</internalNodes>
          <leafValues>
            5.1451534032821655e-01 -4.4458985328674316e-01</leafValues></_></weakClassifiers></_></stages>
  <features>
    <_>
      <rects>
        <_>
          0 0 20 21 -1.</_>
        <_>
          5 0 10 21 2.</_></rects>
      <tilted>0</tilted></_>
    <_>
      <rects>
        <_>
          0 0 20 25 -1.</_>
        <_>
          5 0 10 25 2.</_></rects>
      <tilted>0</tilted></_>
    <_>
      <rects>
        <_>
          0 1 8 20 -1.</_>
        <_>
          4 1 4 20 2.</_></rects>
      <tilted>0</tilted></_>
    <_>
      <rects>
        <_>
          0 1 20 26 -1.</_>
        <_>
          5 1 10 26 2.</_></rects>
      <tilted>0</tilted></_>
    <_>
      <rects>
        <_>
          0 3 6 15 -1.</_>
        <_>
          3 3 3 15 2.</_></rects>
      <tilted>0</tilted></_>
    <_>
      <rects>
        <_>
          0 5 1 2 -1.</_>
        <_>
          0 6 1 1 2.</_></rects>
      <tilted>0</tilted></_>
    <_>
      <rects>
        <_>
          0 9 2 20 -1.</_>
        <_>
          0 14 2 10 2.</_></rects>
      <tilted>0</tilted></_>
    <_>
      <rects>
        <_>
          0 9 20 18 -1.</_>
        <_>
          5 9 10 18 2.</_></rects>
      <tilted>0</tilted></_>
    <_>
      <rects>
        <_>
          0 11 3 3 -1.</_>
        <_>
          0 12 3 1 3.</_></rects>
      <tilted>0</tilted></_>
    <_>
      <rects>
        <_>
          0 13 15 9 -1.</_>
        <_>
          0 16 15 3 3.</_></rects>
      <tilted>0</tilted></_>
    <_>
      <rects>
        <_>
          0 14 7 9 -1.</_>
        <_>
          0 17 7 3 3.</_></rects>
      <tilted>0</tilted></_>
    <_>
      <rects>
        <_>
          0 16 2 6 -1.</_>
        <_>
          0 16 1 3 2.</_>
        <_>
          1 19 1 3 2.</_></rects>
      <tilted>0</tilted></_>
    <_>
      <rects>
        <_>
          0 17 1 3 -1.</_>
        <_>
          0 18 1 1 3.</_></rects>
      <tilted>0</tilted></_>
    <_>
      <rects>
        <_>
          0 19 14 3 -1.</_>
        <_>
          0 20 14 1 3.</_></rects>
      <tilted>0</tilted></_>
    <_>
      <rects>
        <_>
          0 22 1 2 -1.</_>
        <_>
          0 23 1 1 2.</_></rects>
      <tilted>0</tilted></_>
    <_>
      <rects>
        <_>
          0 22 1 3 -1.</_>
        <_>
          0 23 1 1 3.</_></rects>
      <tilted>0</tilted></_>
    <_>
      <rects>
        <_>
          0 22 16 3 -1.</_>
        <_>
          0 23 16 1 3.</_></rects>
      <tilted>0</tilted></_>
    <_>
      <rects>
        <_>
          0 27 6 2 -1.</_>
        <_>
          0 28 6 1 2.</_></rects>
      <tilted>0</tilted></_>
    <_>
      <rects>
        <_>
          1 0 8 12 -1.</_>
        <_>
          1 4 8 4 3.</_></rects>
      <tilted>0</tilted></_>
    <_>
      <rects>
        <_>
          1 1 1 28 -1.</_>
        <_>
          1 8 1 14 2.</_></rects>
      <tilted>0</tilted></_>
    <_>
      <rects>
        <_>
          1 1 4 10 -1.</_>
        <_>
          1 1 2 5 2.</_>
        <_>
          3 6 2 5 2.</_></rects>
      <tilted>0</tilted></_>
    <_>
      <rects>
        <_>
          1 6 19 6 -1.</_>
        <_>
          1 8 19 2 3.</_></rects>
      <tilted>0</tilted></_>
    <_>
      <rects>
        <_>
          1 8 1 3 -1.</_>
        <_>
          1 9 1 1 3.</_></rects>
      <tilted>0</tilted></_>
    <_>
      <rects>
        <_>
          1 8 4 14 -1.</_>
        <_>
          3 8 2 14 2.</_></rects>
      <tilted>0</tilted></_>
    <_>
      <rects>
        <_>
          1 11 14 3 -1.</_>
        <_>
          1 12 14 1 3.</_></rects>
      <tilted>0</tilted></_>
    <_>
      <rects>
        <_>
          1 14 4 4 -1.</_>
        <_>
          3 14 2 4 2.</_></rects>
      <tilted>0</tilted></_>
    <_>
      <rects>
        <_>
          1 16 13 12 -1.</_>
        <_>
          1 20 13 4 3.</_></rects>
      <tilted>0</tilted></_>
    <_>
      <rects>
        <_>
          1 18 4 12 -1.</_>
        <_>
          1 18 2 6 2.</_>
        <_>
          3 24 2 6 2.</_></rects>
      <tilted>0</tilted></_>
    <_>
      <rects>
        <_>
          1 19 1 3 -1.</_>
        <_>
          1 20 1 1 3.</_></rects>
      <tilted>0</tilted></_>
    <_>
      <rects>
        <_>
          1 21 1 8 -1.</_>
        <_>
          1 23 1 4 2.</_></rects>
      <tilted>0</tilted></_>
    <_>
      <rects>
        <_>
          1 25 18 5 -1.</_>
        <_>
          10 25 9 5 2.</_></rects>
      <tilted>0</tilted></_>
    <_>
      <rects>
        <_>
          2 5 6 2 -1.</_>
        <_>
          2 5 6 1 2.</_></rects>
      <tilted>1</tilted></_>
    <_>
      <rects>
        <_>
          2 17 11 8 -1.</_>
        <_>
          2 19 11 4 2.</_></rects>
      <tilted>0</tilted></_>
    <_>
      <rects>
        <_>
          2 18 5 9 -1.</_>
        <_>
          2 21 5 3 3.</_></rects>
      <tilted>0</tilted></_>
    <_>
      <rects>
        <_>
          3 0 10 9 -1.</_>
        <_>
          3 3 10 3 3.</_></rects>
      <tilted>0</tilted></_>
    <_>
      <rects>
        <_>
          3 1 12 6 -1.</_>
        <_>
          3 3 12 2 3.</_></rects>
      <tilted>0</tilted></_>
    <_>
      <rects>
        <_>
          3 2 4 4 -1.</_>
        <_>
          3 2 2 2 2.</_>
        <_>
          5 4 2 2 2.</_></rects>
      <tilted>0</tilted></_>
    <_>
      <rects>
        <_>
          3 2 4 10 -1.</_>
        <_>
          3 2 2 5 2.</_>
        <_>
          5 7 2 5 2.</_></rects>
      <tilted>0</tilted></_>
    <_>
      <rects>
        <_>
          3 2 11 28 -1.</_>
        <_>
          3 9 11 14 2.</_></rects>
      <tilted>0</tilted></_>
    <_>
      <rects>
        <_>
          3 9 16 3 -1.</_>
        <_>
          3 10 16 1 3.</_></rects>
      <tilted>0</tilted></_>
    <_>
      <rects>
        <_>
          3 13 3 9 -1.</_>
        <_>
          4 13 1 9 3.</_></rects>
      <tilted>0</tilted></_>
    <_>
      <rects>
        <_>
          3 18 17 12 -1.</_>
        <_>
          3 21 17 6 2.</_></rects>
      <tilted>0</tilted></_>
    <_>
      <rects>
        <_>
          3 23 16 6 -1.</_>
        <_>
          3 25 16 2 3.</_></rects>
      <tilted>0</tilted></_>
    <_>
      <rects>
        <_>
          3 25 6 4 -1.</_>
        <_>
          3 25 3 2 2.</_>
        <_>
          6 27 3 2 2.</_></rects>
      <tilted>0</tilted></_>
    <_>
      <rects>
        <_>
          4 3 6 1 -1.</_>
        <_>
          6 3 2 1 3.</_></rects>
      <tilted>0</tilted></_>
    <_>
      <rects>
        <_>
          4 6 12 6 -1.</_>
        <_>
          4 6 6 3 2.</_>
        <_>
          10 9 6 3 2.</_></rects>
      <tilted>0</tilted></_>
    <_>
      <rects>
        <_>
          4 11 3 8 -1.</_>
        <_>
          4 13 3 4 2.</_></rects>
      <tilted>0</tilted></_>
    <_>
      <rects>
        <_>
          4 14 16 16 -1.</_>
        <_>
          4 22 16 8 2.</_></rects>
      <tilted>0</tilted></_>
    <_>
      <rects>
        <_>
          4 20 11 3 -1.</_>
        <_>
          4 21 11 1 3.</_></rects>
      <tilted>0</tilted></_>
    <_>
      <rects>
        <_>
          5 0 11 12 -1.</_>
        <_>
          5 3 11 6 2.</_></rects>
      <tilted>0</tilted></_>
    <_>
      <rects>
        <_>
          5 1 6 28 -1.</_>
        <_>
          5 8 6 14 2.</_></rects>
      <tilted>0</tilted></_>
    <_>
      <rects>
        <_>
          5 8 9 4 -1.</_>
        <_>
          8 8 3 4 3.</_></rects>
      <tilted>0</tilted></_>
    <_>
      <rects>
        <_>
          5 16 1 4 -1.</_>
        <_>
          5 17 1 2 2.</_></rects>
      <tilted>0</tilted></_>
    <_>
      <rects>
        <_>
          6 1 11 4 -1.</_>
        <_>
          6 2 11 2 2.</_></rects>
      <tilted>0</tilted></_>
    <_>
      <rects>
        <_>
          6 4 11 3 -1.</_>
        <_>
          6 5 11 1 3.</_></rects>
      <tilted>0</tilted></_>
    <_>
      <rects>
        <_>
          6 10 6 3 -1.</_>
        <_>
          8 10 2 3 3.</_></rects>
      <tilted>0</tilted></_>
    <_>
      <rects>
        <_>
          6 19 2 4 -1.</_>
        <_>
          7 19 1 4 2.</_></rects>
      <tilted>0</tilted></_>
    <_>
      <rects>
        <_>
          6 23 8 3 -1.</_>
        <_>
          6 24 8 1 3.</_></rects>
      <tilted>0</tilted></_>
    <_>
      <rects>
        <_>
          6 27 6 1 -1.</_>
        <_>
          8 27 2 1 3.</_></rects>
      <tilted>0</tilted></_>
    <_>
      <rects>
        <_>
          6 29 12 1 -1.</_>
        <_>
          9 29 6 1 2.</_></rects>
      <tilted>0</tilted></_>
    <_>
      <rects>
        <_>
          7 0 4 3 -1.</_>
        <_>
          7 1 4 1 3.</_></rects>
      <tilted>0</tilted></_>
    <_>
      <rects>
        <_>
          7 1 2 10 -1.</_>
        <_>
          7 1 1 5 2.</_>
        <_>
          8 6 1 5 2.</_></rects>
      <tilted>0</tilted></_>
    <_>
      <rects>
        <_>
          7 6 4 9 -1.</_>
        <_>
          7 9 4 3 3.</_></rects>
      <tilted>0</tilted></_>
    <_>
      <rects>
        <_>
          7 7 12 18 -1.</_>
        <_>
          7 7 6 9 2.</_>
        <_>
          13 16 6 9 2.</_></rects>
      <tilted>0</tilted></_>
    <_>
      <rects>
        <_>
          7 8 4 5 -1.</_>
        <_>
          9 8 2 5 2.</_></rects>
      <tilted>0</tilted></_>
    <_>
      <rects>
        <_>
          7 11 4 14 -1.</_>
        <_>
          7 18 4 7 2.</_></rects>
      <tilted>0</tilted></_>
    <_>
      <rects>
        <_>
          7 14 10 10 -1.</_>
        <_>
          7 19 10 5 2.</_></rects>
      <tilted>0</tilted></_>
    <_>
      <rects>
        <_>
          8 0 10 8 -1.</_>
        <_>
          13 0 5 8 2.</_></rects>
      <tilted>0</tilted></_>
    <_>
      <rects>
        <_>
          8 0 6 3 -1.</_>
        <_>
          8 1 6 1 3.</_></rects>
      <tilted>0</tilted></_>
    <_>
      <rects>
        <_>
          8 0 6 4 -1.</_>
        <_>
          8 1 6 2 2.</_></rects>
      <tilted>0</tilted></_>
    <_>
      <rects>
        <_>
          8 0 12 4 -1.</_>
        <_>
          8 0 6 2 2.</_>
        <_>
          14 2 6 2 2.</_></rects>
      <tilted>0</tilted></_>
    <_>
      <rects>
        <_>
          8 0 12 7 -1.</_>
        <_>
          14 0 6 7 2.</_></rects>
      <tilted>0</tilted></_>
    <_>
      <rects>
        <_>
          8 1 7 3 -1.</_>
        <_>
          8 2 7 1 3.</_></rects>
      <tilted>0</tilted></_>
    <_>
      <rects>
        <_>
          8 5 12 8 -1.</_>
        <_>
          6 7 12 4 2.</_></rects>
      <tilted>1</tilted></_>
    <_>
      <rects>
        <_>
          8 14 4 2 -1.</_>
        <_>
          8 14 2 1 2.</_>
        <_>
          10 15 2 1 2.</_></rects>
      <tilted>0</tilted></_>
    <_>
      <rects>
        <_>
          8 14 7 16 -1.</_>
        <_>
          8 22 7 8 2.</_></rects>
      <tilted>0</tilted></_>
    <_>
      <rects>
        <_>
          8 15 9 3 -1.</_>
        <_>
          8 16 9 1 3.</_></rects>
      <tilted>0</tilted></_>
    <_>
      <rects>
        <_>
          9 0 4 9 -1.</_>
        <_>
          11 0 2 9 2.</_></rects>
      <tilted>0</tilted></_>
    <_>
      <rects>
        <_>
          9 1 2 6 -1.</_>
        <_>
          9 3 2 2 3.</_></rects>
      <tilted>0</tilted></_>
    <_>
      <rects>
        <_>
          9 1 5 9 -1.</_>
        <_>
          9 4 5 3 3.</_></rects>
      <tilted>0</tilted></_>
    <_>
      <rects>
        <_>
          9 9 3 12 -1.</_>
        <_>
          9 15 3 6 2.</_></rects>
      <tilted>0</tilted></_>
    <_>
      <rects>
        <_>
          9 10 7 3 -1.</_>
        <_>
          8 11 7 1 3.</_></rects>
      <tilted>1</tilted></_>
    <_>
      <rects>
        <_>
          9 25 4 4 -1.</_>
        <_>
          9 26 4 2 2.</_></rects>
      <tilted>0</tilted></_>
    <_>
      <rects>
        <_>
          10 0 4 2 -1.</_>
        <_>
          10 0 2 1 2.</_>
        <_>
          12 1 2 1 2.</_></rects>
      <tilted>0</tilted></_>
    <_>
      <rects>
        <_>
          10 0 3 4 -1.</_>
        <_>
          10 1 3 2 2.</_></rects>
      <tilted>0</tilted></_>
    <_>
      <rects>
        <_>
          10 0 4 4 -1.</_>
        <_>
          10 1 4 2 2.</_></rects>
      <tilted>0</tilted></_>
    <_>
      <rects>
        <_>
          10 0 8 4 -1.</_>
        <_>
          10 1 8 2 2.</_></rects>
      <tilted>0</tilted></_>
    <_>
      <rects>
        <_>
          10 1 8 9 -1.</_>
        <_>
          14 1 4 9 2.</_></rects>
      <tilted>0</tilted></_>
    <_>
      <rects>
        <_>
          10 22 7 3 -1.</_>
        <_>
          10 23 7 1 3.</_></rects>
      <tilted>0</tilted></_>
    <_>
      <rects>
        <_>
          11 0 4 24 -1.</_>
        <_>
          11 6 4 12 2.</_></rects>
      <tilted>0</tilted></_>
    <_>
      <rects>
        <_>
          11 1 4 6 -1.</_>
        <_>
          13 1 2 6 2.</_></rects>
      <tilted>0</tilted></_>
    <_>
      <rects>
        <_>
          11 2 6 4 -1.</_>
        <_>
          10 3 6 2 2.</_></rects>
      <tilted>1</tilted></_>
    <_>
      <rects>
        <_>
          11 3 4 11 -1.</_>
        <_>
          12 4 2 11 2.</_></rects>
      <tilted>1</tilted></_>
    <_>
      <rects>
        <_>
          11 26 2 2 -1.</_>
        <_>
          11 26 1 2 2.</_></rects>
      <tilted>1</tilted></_>
    <_>
      <rects>
        <_>
          12 6 5 8 -1.</_>
        <_>
          10 8 5 4 2.</_></rects>
      <tilted>1</tilted></_>
    <_>
      <rects>
        <_>
          13 9 1 12 -1.</_>
        <_>
          13 9 1 6 2.</_></rects>
      <tilted>1</tilted></_>
    <_>
      <rects>
        <_>
          13 18 3 4 -1.</_>
        <_>
          14 19 1 4 3.</_></rects>
      <tilted>1</tilted></_>
    <_>
      <rects>
        <_>
          13 27 6 3 -1.</_>
        <_>
          15 28 2 1 9.</_></rects>
      <tilted>0</tilted></_>
    <_>
      <rects>
        <_>
          14 0 5 26 -1.</_>
        <_>
          14 13 5 13 2.</_></rects>
      <tilted>0</tilted></_>
    <_>
      <rects>
        <_>
          14 9 4 15 -1.</_>
        <_>
          15 9 2 15 2.</_></rects>
      <tilted>0</tilted></_>
    <_>
      <rects>
        <_>
          15 6 5 24 -1.</_>
        <_>
          15 12 5 12 2.</_></rects>
      <tilted>0</tilted></_>
    <_>
      <rects>
        <_>
          16 5 3 12 -1.</_>
        <_>
          16 8 3 6 2.</_></rects>
      <tilted>0</tilted></_>
    <_>
      <rects>
        <_>
          16 8 2 9 -1.</_>
        <_>
          16 11 2 3 3.</_></rects>
      <tilted>0</tilted></_>
    <_>
      <rects>
        <_>
          16 13 4 2 -1.</_>
        <_>
          16 13 2 1 2.</_>
        <_>
          18 14 2 1 2.</_></rects>
      <tilted>0</tilted></_>
    <_>
      <rects>
        <_>
          16 18 2 2 -1.</_>
        <_>
          16 18 1 1 2.</_>
        <_>
          17 19 1 1 2.</_></rects>
      <tilted>0</tilted></_>
    <_>
      <rects>
        <_>
          17 2 3 3 -1.</_>
        <_>
          18 3 1 1 9.</_></rects>
      <tilted>0</tilted></_>
    <_>
      <rects>
        <_>
          17 13 2 4 -1.</_>
        <_>
          17 14 2 2 2.</_></rects>
      <tilted>0</tilted></_>
    <_>
      <rects>
        <_>
          17 16 1 14 -1.</_>
        <_>
          17 23 1 7 2.</_></rects>
      <tilted>0</tilted></_>
    <_>
      <rects>
        <_>
          17 18 1 12 -1.</_>
        <_>
          17 24 1 6 2.</_></rects>
      <tilted>0</tilted></_>
    <_>
      <rects>
        <_>
          18 0 2 6 -1.</_>
        <_>
          18 2 2 2 3.</_></rects>
      <tilted>0</tilted></_>
    <_>
      <rects>
        <_>
          18 1 2 2 -1.</_>
        <_>
          18 1 1 1 2.</_>
        <_>
          19 2 1 1 2.</_></rects>
      <tilted>0</tilted></_>
    <_>
      <rects>
        <_>
          18 2 1 22 -1.</_>
        <_>
          18 13 1 11 2.</_></rects>
      <tilted>0</tilted></_>
    <_>
      <rects>
        <_>
          18 4 2 10 -1.</_>
        <_>
          18 4 1 5 2.</_>
        <_>
          19 9 1 5 2.</_></rects>
      <tilted>0</tilted></_>
    <_>
      <rects>
        <_>
          18 9 2 2 -1.</_>
        <_>
          18 9 1 1 2.</_>
        <_>
          19 10 1 1 2.</_></rects>
      <tilted>0</tilted></_>
    <_>
      <rects>
        <_>
          18 9 2 15 -1.</_>
        <_>
          18 14 2 5 3.</_></rects>
      <tilted>0</tilted></_>
    <_>
      <rects>
        <_>
          18 14 2 16 -1.</_>
        <_>
          18 18 2 8 2.</_></rects>
      <tilted>0</tilted></_>
    <_>
      <rects>
        <_>
          18 16 2 3 -1.</_>
        <_>
          19 16 1 3 2.</_></rects>
      <tilted>0</tilted></_>
    <_>
      <rects>
        <_>
          18 18 1 2 -1.</_>
        <_>
          18 19 1 1 2.</_></rects>
      <tilted>0</tilted></_>
    <_>
      <rects>
        <_>
          18 18 2 12 -1.</_>
        <_>
          18 24 2 6 2.</_></rects>
      <tilted>0</tilted></_>
    <_>
      <rects>
        <_>
          18 26 2 3 -1.</_>
        <_>
          18 27 2 1 3.</_></rects>
      <tilted>0</tilted></_>
    <_>
      <rects>
        <_>
          19 1 1 3 -1.</_>
        <_>
          19 2 1 1 3.</_></rects>
      <tilted>0</tilted></_>
    <_>
      <rects>
        <_>
          19 2 1 12 -1.</_>
        <_>
          19 8 1 6 2.</_></rects>
      <tilted>0</tilted></_>
    <_>
      <rects>
        <_>
          19 4 1 4 -1.</_>
        <_>
          19 6 1 2 2.</_></rects>
      <tilted>0</tilted></_>
    <_>
      <rects>
        <_>
          19 16 1 9 -1.</_>
        <_>
          19 19 1 3 3.</_></rects>
      <tilted>0</tilted></_>
    <_>
      <rects>
        <_>
          19 19 1 3 -1.</_>
        <_>
          19 20 1 1 3.</_></rects>
      <tilted>0</tilted></_></features></cascade>
</opencv_storage>
