<?xml version="1.0"?>
<opencv_storage>
<stage13>
  <maxWeakCount>12</maxWeakCount>
  <stageThreshold>-8.6122620105743408e-01</stageThreshold>
  <weakClassifiers>
    <_>
      <internalNodes>
        0 -1 140933 -1.6151354648172855e-03</internalNodes>
      <leafValues>
        7.3831772804260254e-01 -1.1934156715869904e-01</leafValues></_>
    <_>
      <internalNodes>
        0 -1 239593 3.0352437868714333e-02</internalNodes>
      <leafValues>
        -2.3582088947296143e-01 6.2400203943252563e-01</leafValues></_>
    <_>
      <internalNodes>
        0 -1 265424 3.8476174813695252e-04</internalNodes>
      <leafValues>
        2.9661169648170471e-01 -6.1365646123886108e-01</leafValues></_>
    <_>
      <internalNodes>
        0 -1 126858 7.2011975571513176e-03</internalNodes>
      <leafValues>
        -2.2063900530338287e-01 6.7221385240554810e-01</leafValues></_>
    <_>
      <internalNodes>
        0 -1 162696 -1.1240841820836067e-02</internalNodes>
      <leafValues>
        8.1748962402343750e-01 -2.1622015535831451e-01</leafValues></_>
    <_>
      <internalNodes>
        0 -1 257606 6.4093573018908501e-04</internalNodes>
      <leafValues>
        -3.5669410228729248e-01 5.1678949594497681e-01</leafValues></_>
    <_>
      <internalNodes>
        0 -1 67604 -2.8622050303965807e-03</internalNodes>
      <leafValues>
        7.3333030939102173e-01 -3.2662424445152283e-01</leafValues></_>
    <_>
      <internalNodes>
        0 -1 20796 1.1015779455192387e-04</internalNodes>
      <leafValues>
        3.2436758279800415e-01 -7.1387141942977905e-01</leafValues></_>
    <_>
      <internalNodes>
        0 -1 89039 -5.4218375589698553e-04</internalNodes>
      <leafValues>
        5.2789664268493652e-01 -3.9419543743133545e-01</leafValues></_>
    <_>
      <internalNodes>
        0 -1 120565 8.8369401055388153e-05</internalNodes>
      <leafValues>
        3.7581923604011536e-01 -5.6133145093917847e-01</leafValues></_>
    <_>
      <internalNodes>
        0 -1 18181 -6.4067258790601045e-05</internalNodes>
      <leafValues>
        -6.3675248622894287e-01 3.2904824614524841e-01</leafValues></_>
    <_>
      <internalNodes>
        0 -1 173424 1.7001681262627244e-03</internalNodes>
      <leafValues>
        -2.6705175638198853e-01 8.6346381902694702e-01</leafValues></_></weakClassifiers></stage13>
</opencv_storage>
