<?xml version="1.0"?>
<opencv_storage>
<stage6>
  <maxWeakCount>5</maxWeakCount>
  <stageThreshold>-3.8104492425918579e-01</stageThreshold>
  <weakClassifiers>
    <_>
      <internalNodes>
        0 -1 2170 3.5994291305541992e-01</internalNodes>
      <leafValues>
        -4.4099378585815430e-01 6.4021164178848267e-01</leafValues></_>
    <_>
      <internalNodes>
        0 -1 107620 6.5984919667243958e-02</internalNodes>
      <leafValues>
        -3.8086575269699097e-01 6.4703422784805298e-01</leafValues></_>
    <_>
      <internalNodes>
        0 -1 275610 -8.6038268636912107e-04</internalNodes>
      <leafValues>
        -8.1517809629440308e-01 3.3051264286041260e-01</leafValues></_>
    <_>
      <internalNodes>
        0 -1 84602 -2.0173126831650734e-03</internalNodes>
      <leafValues>
        6.0011863708496094e-01 -3.8320854306221008e-01</leafValues></_>
    <_>
      <internalNodes>
        0 -1 22239 -8.4814953152090311e-04</internalNodes>
      <leafValues>
        5.0679928064346313e-01 -4.6990409493446350e-01</leafValues></_></weakClassifiers></stage6>
</opencv_storage>
