<?xml version="1.0"?>
<opencv_storage>
<stage18>
  <maxWeakCount>7</maxWeakCount>
  <stageThreshold>-7.7694237232208252e-01</stageThreshold>
  <weakClassifiers>
    <_>
      <internalNodes>
        0 -1 31071 2.4348355829715729e-02</internalNodes>
      <leafValues>
        3.2885906100273132e-01 -9.2307692766189575e-01</leafValues></_>
    <_>
      <internalNodes>
        0 -1 6841 1.1111602361779660e-04</internalNodes>
      <leafValues>
        2.4174249172210693e-01 -7.1073144674301147e-01</leafValues></_>
    <_>
      <internalNodes>
        0 -1 37602 1.8719317391514778e-02</internalNodes>
      <leafValues>
        -2.2746035456657410e-01 9.4073659181594849e-01</leafValues></_>
    <_>
      <internalNodes>
        0 -1 78618 -1.6685009468346834e-03</internalNodes>
      <leafValues>
        5.7390487194061279e-01 -3.3214858174324036e-01</leafValues></_>
    <_>
      <internalNodes>
        0 -1 276163 1.7359899356961250e-04</internalNodes>
      <leafValues>
        3.5330411791801453e-01 -6.2261676788330078e-01</leafValues></_>
    <_>
      <internalNodes>
        0 -1 266968 5.4406741401180625e-04</internalNodes>
      <leafValues>
        1.8381740152835846e-01 -9.4946223497390747e-01</leafValues></_>
    <_>
      <internalNodes>
        0 -1 149847 -5.2472022362053394e-03</internalNodes>
      <leafValues>
        6.0333830118179321e-01 -3.9720556139945984e-01</leafValues></_></weakClassifiers></stage18>
</opencv_storage>
