<?xml version="1.0"?>
<opencv_storage>
<stage12>
  <maxWeakCount>7</maxWeakCount>
  <stageThreshold>-4.6873515844345093e-01</stageThreshold>
  <weakClassifiers>
    <_>
      <internalNodes>
        0 -1 17532 4.1790626710280776e-04</internalNodes>
      <leafValues>
        3.9230769872665405e-01 -5.7777780294418335e-01</leafValues></_>
    <_>
      <internalNodes>
        0 -1 272566 -9.9872413557022810e-04</internalNodes>
      <leafValues>
        4.2462572455406189e-01 -4.1659155488014221e-01</leafValues></_>
    <_>
      <internalNodes>
        0 -1 187075 1.2600539252161980e-02</internalNodes>
      <leafValues>
        -2.2323310375213623e-01 8.3660495281219482e-01</leafValues></_>
    <_>
      <internalNodes>
        0 -1 39459 9.4474926590919495e-03</internalNodes>
      <leafValues>
        -5.1059705018997192e-01 3.7075376510620117e-01</leafValues></_>
    <_>
      <internalNodes>
        0 -1 174483 3.8533541373908520e-03</internalNodes>
      <leafValues>
        -2.6554116606712341e-01 8.0622643232345581e-01</leafValues></_>
    <_>
      <internalNodes>
        0 -1 11553 -9.0179737890139222e-04</internalNodes>
      <leafValues>
        4.5305266976356506e-01 -4.6717765927314758e-01</leafValues></_>
    <_>
      <internalNodes>
        0 -1 276235 -1.8656143220141530e-04</internalNodes>
      <leafValues>
        -8.0093538761138916e-01 2.6961505413055420e-01</leafValues></_></weakClassifiers></stage12>
</opencv_storage>
