<?xml version="1.0"?>
<opencv_storage>
<cascade>
  <stageType>BOOST</stageType>
  <featureType>HAAR</featureType>
  <height>60</height>
  <width>40</width>
  <stageParams>
    <boostType>GAB</boostType>
    <minHitRate>9.9500000476837158e-01</minHitRate>
    <maxFalseAlarm>5.0000000000000000e-01</maxFalseAlarm>
    <weightTrimRate>9.4999999999999996e-01</weightTrimRate>
    <maxDepth>1</maxDepth>
    <maxWeakCount>100</maxWeakCount></stageParams>
  <featureParams>
    <maxCatCount>0</maxCatCount>
    <featSize>1</featSize>
    <mode>ALL</mode></featureParams>
  <stageNum>10</stageNum>
  <stages>
    <!-- stage 0 -->
    <_>
      <maxWeakCount>3</maxWeakCount>
      <stageThreshold>-1.7179733514785767e-01</stageThreshold>
      <weakClassifiers>
        <_>
          <internalNodes>
            0 -1 15 3.0785277485847473e-03</internalNodes>
          <leafValues>
            -5.3968256711959839e-01 9.5161288976669312e-01</leafValues></_>
        <_>
          <internalNodes>
            0 -1 11 -1.0016860440373421e-02</internalNodes>
          <leafValues>
            8.9965683221817017e-01 -5.1624137163162231e-01</leafValues></_>
        <_>
          <internalNodes>
            0 -1 45 -1.0296445339918137e-02</internalNodes>
          <leafValues>
            9.3289345502853394e-01 -5.3177165985107422e-01</leafValues></_></weakClassifiers></_>
    <!-- stage 1 -->
    <_>
      <maxWeakCount>3</maxWeakCount>
      <stageThreshold>-2.6867878437042236e-01</stageThreshold>
      <weakClassifiers>
        <_>
          <internalNodes>
            0 -1 38 -8.1330793909728527e-04</internalNodes>
          <leafValues>
            7.5362318754196167e-01 -4.8214286565780640e-01</leafValues></_>
        <_>
          <internalNodes>
            0 -1 23 -4.0883398614823818e-03</internalNodes>
          <leafValues>
            8.2399016618728638e-01 -4.9329733848571777e-01</leafValues></_>
        <_>
          <internalNodes>
            0 -1 9 -4.2292132275179029e-04</internalNodes>
          <leafValues>
            7.5455087423324585e-01 -5.2900463342666626e-01</leafValues></_></weakClassifiers></_>
    <!-- stage 2 -->
    <_>
      <maxWeakCount>5</maxWeakCount>
      <stageThreshold>-4.1801875829696655e-01</stageThreshold>
      <weakClassifiers>
        <_>
          <internalNodes>
            0 -1 25 -4.0714815258979797e-03</internalNodes>
          <leafValues>
            6.9032257795333862e-01 -6.0000002384185791e-01</leafValues></_>
        <_>
          <internalNodes>
            0 -1 40 1.0909051634371281e-03</internalNodes>
          <leafValues>
            -4.7663378715515137e-01 8.1429249048233032e-01</leafValues></_>
        <_>
          <internalNodes>
            0 -1 7 9.7231171093881130e-04</internalNodes>
          <leafValues>
            -6.3195532560348511e-01 5.7283812761306763e-01</leafValues></_>
        <_>
          <internalNodes>
            0 -1 36 -6.8657496012747288e-04</internalNodes>
          <leafValues>
            6.4038556814193726e-01 -6.3224083185195923e-01</leafValues></_>
        <_>
          <internalNodes>
            0 -1 33 -6.7206291714683175e-04</internalNodes>
          <leafValues>
            8.0627441406250000e-01 -5.5460864305496216e-01</leafValues></_></weakClassifiers></_>
    <!-- stage 3 -->
    <_>
      <maxWeakCount>3</maxWeakCount>
      <stageThreshold>-5.1352787017822266e-01</stageThreshold>
      <weakClassifiers>
        <_>
          <internalNodes>
            0 -1 26 -5.4583285236731172e-04</internalNodes>
          <leafValues>
            6.5384614467620850e-01 -5.5319148302078247e-01</leafValues></_>
        <_>
          <internalNodes>
            0 -1 1 -6.3562840223312378e-03</internalNodes>
          <leafValues>
            8.3181691169738770e-01 -4.3247690796852112e-01</leafValues></_>
        <_>
          <internalNodes>
            0 -1 24 -4.3594492599368095e-03</internalNodes>
          <leafValues>
            -8.1807261705398560e-01 4.7214052081108093e-01</leafValues></_></weakClassifiers></_>
    <!-- stage 4 -->
    <_>
      <maxWeakCount>6</maxWeakCount>
      <stageThreshold>-6.1928856372833252e-01</stageThreshold>
      <weakClassifiers>
        <_>
          <internalNodes>
            0 -1 39 -6.6713802516460419e-04</internalNodes>
          <leafValues>
            6.8275862932205200e-01 -4.6666666865348816e-01</leafValues></_>
        <_>
          <internalNodes>
            0 -1 13 3.1706757843494415e-02</internalNodes>
          <leafValues>
            -3.4470763802528381e-01 8.6916470527648926e-01</leafValues></_>
        <_>
          <internalNodes>
            0 -1 14 -2.5302951689809561e-03</internalNodes>
          <leafValues>
            8.3368015289306641e-01 -3.5965809226036072e-01</leafValues></_>
        <_>
          <internalNodes>
            0 -1 32 -1.5055310213938355e-03</internalNodes>
          <leafValues>
            8.3176004886627197e-01 -4.6284902095794678e-01</leafValues></_>
        <_>
          <internalNodes>
            0 -1 43 -5.7753877626964822e-05</internalNodes>
          <leafValues>
            -8.7995570898056030e-01 5.1582455635070801e-01</leafValues></_>
        <_>
          <internalNodes>
            0 -1 12 -5.3097065538167953e-03</internalNodes>
          <leafValues>
            5.6356680393218994e-01 -6.9457000494003296e-01</leafValues></_></weakClassifiers></_>
    <!-- stage 5 -->
    <_>
      <maxWeakCount>6</maxWeakCount>
      <stageThreshold>-1.0922471284866333e+00</stageThreshold>
      <weakClassifiers>
        <_>
          <internalNodes>
            0 -1 8 -5.2688913419842720e-03</internalNodes>
          <leafValues>
            7.1428573131561279e-01 -3.8461539149284363e-01</leafValues></_>
        <_>
          <internalNodes>
            0 -1 28 -1.3980832882225513e-03</internalNodes>
          <leafValues>
            5.3696179389953613e-01 -5.3244352340698242e-01</leafValues></_>
        <_>
          <internalNodes>
            0 -1 29 -4.4838902795163449e-06</internalNodes>
          <leafValues>
            5.2874660491943359e-01 -5.7068109512329102e-01</leafValues></_>
        <_>
          <internalNodes>
            0 -1 31 7.3209084803238511e-05</internalNodes>
          <leafValues>
            3.8246414065361023e-01 -7.8906798362731934e-01</leafValues></_>
        <_>
          <internalNodes>
            0 -1 17 -8.7748840451240540e-03</internalNodes>
          <leafValues>
            6.5568184852600098e-01 -5.1697880029678345e-01</leafValues></_>
        <_>
          <internalNodes>
            0 -1 27 -1.4646892668679357e-03</internalNodes>
          <leafValues>
            6.2547892332077026e-01 -5.6942015886306763e-01</leafValues></_></weakClassifiers></_>
    <!-- stage 6 -->
    <_>
      <maxWeakCount>5</maxWeakCount>
      <stageThreshold>-5.6358546018600464e-01</stageThreshold>
      <weakClassifiers>
        <_>
          <internalNodes>
            0 -1 19 -6.1205294914543629e-03</internalNodes>
          <leafValues>
            8.4761905670166016e-01 -2.6896551251411438e-01</leafValues></_>
        <_>
          <internalNodes>
            0 -1 22 1.5342745464295149e-03</internalNodes>
          <leafValues>
            -4.0962624549865723e-01 8.0354648828506470e-01</leafValues></_>
        <_>
          <internalNodes>
            0 -1 5 3.0920074786990881e-03</internalNodes>
          <leafValues>
            -3.6295035481452942e-01 8.2816070318222046e-01</leafValues></_>
        <_>
          <internalNodes>
            0 -1 10 -2.7907909825444221e-03</internalNodes>
          <leafValues>
            8.8131487369537354e-01 -4.1051906347274780e-01</leafValues></_>
        <_>
          <internalNodes>
            0 -1 42 -7.4332812801003456e-04</internalNodes>
          <leafValues>
            8.8847571611404419e-01 -2.7451771497726440e-01</leafValues></_></weakClassifiers></_>
    <!-- stage 7 -->
    <_>
      <maxWeakCount>4</maxWeakCount>
      <stageThreshold>-7.1993160247802734e-01</stageThreshold>
      <weakClassifiers>
        <_>
          <internalNodes>
            0 -1 2 -6.8580368533730507e-03</internalNodes>
          <leafValues>
            8.3486241102218628e-01 -2.9078012704849243e-01</leafValues></_>
        <_>
          <internalNodes>
            0 -1 34 -1.1396581248845905e-04</internalNodes>
          <leafValues>
            7.1422570943832397e-01 -4.3662545084953308e-01</leafValues></_>
        <_>
          <internalNodes>
            0 -1 0 1.2593528663273901e-04</internalNodes>
          <leafValues>
            4.1573327779769897e-01 -8.2450914382934570e-01</leafValues></_>
        <_>
          <internalNodes>
            0 -1 18 -2.5952584110200405e-03</internalNodes>
          <leafValues>
            8.2571613788604736e-01 -4.0825930237770081e-01</leafValues></_></weakClassifiers></_>
    <!-- stage 8 -->
    <_>
      <maxWeakCount>5</maxWeakCount>
      <stageThreshold>-4.7143712639808655e-01</stageThreshold>
      <weakClassifiers>
        <_>
          <internalNodes>
            0 -1 4 3.3964242902584374e-05</internalNodes>
          <leafValues>
            5.2631580829620361e-01 -8.3333331346511841e-01</leafValues></_>
        <_>
          <internalNodes>
            0 -1 3 -5.3832875564694405e-03</internalNodes>
          <leafValues>
            8.3573704957962036e-01 -4.1331776976585388e-01</leafValues></_>
        <_>
          <internalNodes>
            0 -1 44 -7.8276978456415236e-05</internalNodes>
          <leafValues>
            -9.0872371196746826e-01 3.8001373410224915e-01</leafValues></_>
        <_>
          <internalNodes>
            0 -1 35 -6.4319337252527475e-04</internalNodes>
          <leafValues>
            7.2589546442031860e-01 -4.7530806064605713e-01</leafValues></_>
        <_>
          <internalNodes>
            0 -1 20 -3.3389958553016186e-03</internalNodes>
          <leafValues>
            8.7050831317901611e-01 -4.2133098840713501e-01</leafValues></_></weakClassifiers></_>
    <!-- stage 9 -->
    <_>
      <maxWeakCount>6</maxWeakCount>
      <stageThreshold>-9.5546448230743408e-01</stageThreshold>
      <weakClassifiers>
        <_>
          <internalNodes>
            0 -1 30 -6.3143647275865078e-04</internalNodes>
          <leafValues>
            6.1490684747695923e-01 -5.5056178569793701e-01</leafValues></_>
        <_>
          <internalNodes>
            0 -1 6 4.0421866287942976e-05</internalNodes>
          <leafValues>
            3.9466825127601624e-01 -8.8092291355133057e-01</leafValues></_>
        <_>
          <internalNodes>
            0 -1 37 -2.1179500618018210e-04</internalNodes>
          <leafValues>
            -8.4267121553421021e-01 3.7397313117980957e-01</leafValues></_>
        <_>
          <internalNodes>
            0 -1 16 -3.6701525095850229e-03</internalNodes>
          <leafValues>
            6.7077165842056274e-01 -5.4744029045104980e-01</leafValues></_>
        <_>
          <internalNodes>
            0 -1 41 2.2672517225146294e-03</internalNodes>
          <leafValues>
            3.5655161738395691e-01 -9.2432755231857300e-01</leafValues></_>
        <_>
          <internalNodes>
            0 -1 21 -5.6635508371982723e-05</internalNodes>
          <leafValues>
            -9.0471547842025757e-01 2.9293578863143921e-01</leafValues></_></weakClassifiers></_></stages>
  <features>
    <_>
      <rects>
        <_>
          0 16 1 6 -1.</_>
        <_>
          0 19 1 3 2.</_></rects>
      <tilted>0</tilted></_>
    <_>
      <rects>
        <_>
          0 18 16 7 -1.</_>
        <_>
          4 18 8 7 2.</_></rects>
      <tilted>0</tilted></_>
    <_>
      <rects>
        <_>
          0 46 8 14 -1.</_>
        <_>
          4 46 4 14 2.</_></rects>
      <tilted>0</tilted></_>
    <_>
      <rects>
        <_>
          0 51 8 9 -1.</_>
        <_>
          4 51 4 9 2.</_></rects>
      <tilted>0</tilted></_>
    <_>
      <rects>
        <_>
          1 0 1 4 -1.</_>
        <_>
          1 1 1 2 2.</_></rects>
      <tilted>0</tilted></_>
    <_>
      <rects>
        <_>
          2 1 16 6 -1.</_>
        <_>
          2 1 8 3 2.</_>
        <_>
          10 4 8 3 2.</_></rects>
      <tilted>0</tilted></_>
    <_>
      <rects>
        <_>
          3 0 1 2 -1.</_>
        <_>
          3 0 1 1 2.</_></rects>
      <tilted>1</tilted></_>
    <_>
      <rects>
        <_>
          4 15 26 9 -1.</_>
        <_>
          4 18 26 3 3.</_></rects>
      <tilted>0</tilted></_>
    <_>
      <rects>
        <_>
          4 37 19 4 -1.</_>
        <_>
          4 37 19 2 2.</_></rects>
      <tilted>1</tilted></_>
    <_>
      <rects>
        <_>
          5 47 9 13 -1.</_>
        <_>
          8 47 3 13 3.</_></rects>
      <tilted>0</tilted></_>
    <_>
      <rects>
        <_>
          7 3 28 4 -1.</_>
        <_>
          7 4 28 2 2.</_></rects>
      <tilted>0</tilted></_>
    <_>
      <rects>
        <_>
          7 38 13 21 -1.</_>
        <_>
          7 45 13 7 3.</_></rects>
      <tilted>0</tilted></_>
    <_>
      <rects>
        <_>
          8 17 13 32 -1.</_>
        <_>
          8 25 13 16 2.</_></rects>
      <tilted>0</tilted></_>
    <_>
      <rects>
        <_>
          9 12 21 4 -1.</_>
        <_>
          16 19 7 4 3.</_></rects>
      <tilted>1</tilted></_>
    <_>
      <rects>
        <_>
          11 4 17 4 -1.</_>
        <_>
          11 6 17 2 2.</_></rects>
      <tilted>0</tilted></_>
    <_>
      <rects>
        <_>
          12 37 28 8 -1.</_>
        <_>
          12 41 28 4 2.</_></rects>
      <tilted>0</tilted></_>
    <_>
      <rects>
        <_>
          12 42 1 12 -1.</_>
        <_>
          12 42 1 6 2.</_></rects>
      <tilted>1</tilted></_>
    <_>
      <rects>
        <_>
          13 4 26 12 -1.</_>
        <_>
          13 7 26 6 2.</_></rects>
      <tilted>0</tilted></_>
    <_>
      <rects>
        <_>
          14 26 20 1 -1.</_>
        <_>
          24 26 10 1 2.</_></rects>
      <tilted>0</tilted></_>
    <_>
      <rects>
        <_>
          14 44 1 14 -1.</_>
        <_>
          14 44 1 7 2.</_></rects>
      <tilted>1</tilted></_>
    <_>
      <rects>
        <_>
          15 22 10 5 -1.</_>
        <_>
          20 22 5 5 2.</_></rects>
      <tilted>0</tilted></_>
    <_>
      <rects>
        <_>
          15 58 3 1 -1.</_>
        <_>
          16 58 1 1 3.</_></rects>
      <tilted>0</tilted></_>
    <_>
      <rects>
        <_>
          16 0 6 12 -1.</_>
        <_>
          19 0 3 12 2.</_></rects>
      <tilted>0</tilted></_>
    <_>
      <rects>
        <_>
          16 1 22 16 -1.</_>
        <_>
          16 5 22 8 2.</_></rects>
      <tilted>0</tilted></_>
    <_>
      <rects>
        <_>
          17 14 8 14 -1.</_>
        <_>
          17 21 8 7 2.</_></rects>
      <tilted>0</tilted></_>
    <_>
      <rects>
        <_>
          19 20 2 40 -1.</_>
        <_>
          19 30 2 20 2.</_></rects>
      <tilted>0</tilted></_>
    <_>
      <rects>
        <_>
          21 3 10 5 -1.</_>
        <_>
          26 3 5 5 2.</_></rects>
      <tilted>0</tilted></_>
    <_>
      <rects>
        <_>
          21 42 2 18 -1.</_>
        <_>
          21 48 2 6 3.</_></rects>
      <tilted>0</tilted></_>
    <_>
      <rects>
        <_>
          22 1 8 7 -1.</_>
        <_>
          26 1 4 7 2.</_></rects>
      <tilted>0</tilted></_>
    <_>
      <rects>
        <_>
          22 13 1 16 -1.</_>
        <_>
          22 17 1 8 2.</_></rects>
      <tilted>0</tilted></_>
    <_>
      <rects>
        <_>
          23 1 6 7 -1.</_>
        <_>
          26 1 3 7 2.</_></rects>
      <tilted>0</tilted></_>
    <_>
      <rects>
        <_>
          23 59 6 1 -1.</_>
        <_>
          25 59 2 1 3.</_></rects>
      <tilted>0</tilted></_>
    <_>
      <rects>
        <_>
          24 1 4 6 -1.</_>
        <_>
          24 3 4 2 3.</_></rects>
      <tilted>0</tilted></_>
    <_>
      <rects>
        <_>
          24 4 16 2 -1.</_>
        <_>
          24 4 8 1 2.</_>
        <_>
          32 5 8 1 2.</_></rects>
      <tilted>0</tilted></_>
    <_>
      <rects>
        <_>
          27 4 4 6 -1.</_>
        <_>
          28 4 2 6 2.</_></rects>
      <tilted>0</tilted></_>
    <_>
      <rects>
        <_>
          27 4 12 2 -1.</_>
        <_>
          27 5 12 1 2.</_></rects>
      <tilted>0</tilted></_>
    <_>
      <rects>
        <_>
          30 7 6 12 -1.</_>
        <_>
          30 11 6 4 3.</_></rects>
      <tilted>0</tilted></_>
    <_>
      <rects>
        <_>
          31 17 5 4 -1.</_>
        <_>
          31 18 5 2 2.</_></rects>
      <tilted>0</tilted></_>
    <_>
      <rects>
        <_>
          32 42 3 18 -1.</_>
        <_>
          32 48 3 6 3.</_></rects>
      <tilted>0</tilted></_>
    <_>
      <rects>
        <_>
          32 47 8 1 -1.</_>
        <_>
          32 47 4 1 2.</_></rects>
      <tilted>1</tilted></_>
    <_>
      <rects>
        <_>
          32 52 2 8 -1.</_>
        <_>
          32 56 2 4 2.</_></rects>
      <tilted>0</tilted></_>
    <_>
      <rects>
        <_>
          35 30 5 16 -1.</_>
        <_>
          35 34 5 8 2.</_></rects>
      <tilted>0</tilted></_>
    <_>
      <rects>
        <_>
          36 12 4 15 -1.</_>
        <_>
          37 12 2 15 2.</_></rects>
      <tilted>0</tilted></_>
    <_>
      <rects>
        <_>
          37 1 2 4 -1.</_>
        <_>
          37 3 2 2 2.</_></rects>
      <tilted>0</tilted></_>
    <_>
      <rects>
        <_>
          37 5 3 3 -1.</_>
        <_>
          37 6 3 1 3.</_></rects>
      <tilted>0</tilted></_>
    <_>
      <rects>
        <_>
          37 18 3 42 -1.</_>
        <_>
          37 32 3 14 3.</_></rects>
      <tilted>0</tilted></_></features></cascade>
</opencv_storage>
