<?xml version="1.0"?>
<opencv_storage>
<stage6>
  <maxWeakCount>5</maxWeakCount>
  <stageThreshold>-5.6358546018600464e-01</stageThreshold>
  <weakClassifiers>
    <_>
      <internalNodes>
        0 -1 2463796 -6.1205294914543629e-03</internalNodes>
      <leafValues>
        8.4761905670166016e-01 -2.6896551251411438e-01</leafValues></_>
    <_>
      <internalNodes>
        0 -1 2615612 1.5342745464295149e-03</internalNodes>
      <leafValues>
        -4.0962624549865723e-01 8.0354648828506470e-01</leafValues></_>
    <_>
      <internalNodes>
        0 -1 365747 3.0920074786990881e-03</internalNodes>
      <leafValues>
        -3.6295035481452942e-01 8.2816070318222046e-01</leafValues></_>
    <_>
      <internalNodes>
        0 -1 1240203 -2.7907909825444221e-03</internalNodes>
      <leafValues>
        8.8131487369537354e-01 -4.1051906347274780e-01</leafValues></_>
    <_>
      <internalNodes>
        0 -1 4448227 -7.4332812801003456e-04</internalNodes>
      <leafValues>
        8.8847571611404419e-01 -2.7451771497726440e-01</leafValues></_></weakClassifiers></stage6>
</opencv_storage>
