<?xml version="1.0"?>
<opencv_storage>
<stage8>
  <maxWeakCount>5</maxWeakCount>
  <stageThreshold>-4.7143712639808655e-01</stageThreshold>
  <weakClassifiers>
    <_>
      <internalNodes>
        0 -1 181365 3.3964242902584374e-05</internalNodes>
      <leafValues>
        5.2631580829620361e-01 -8.3333331346511841e-01</leafValues></_>
    <_>
      <internalNodes>
        0 -1 177438 -5.3832875564694405e-03</internalNodes>
      <leafValues>
        8.3573704957962036e-01 -4.1331776976585388e-01</leafValues></_>
    <_>
      <internalNodes>
        0 -1 4470462 -7.8276978456415236e-05</internalNodes>
      <leafValues>
        -9.0872371196746826e-01 3.8001373410224915e-01</leafValues></_>
    <_>
      <internalNodes>
        0 -1 3905718 -6.4319337252527475e-04</internalNodes>
      <leafValues>
        7.2589546442031860e-01 -4.7530806064605713e-01</leafValues></_>
    <_>
      <internalNodes>
        0 -1 2557673 -3.3389958553016186e-03</internalNodes>
      <leafValues>
        8.7050831317901611e-01 -4.2133098840713501e-01</leafValues></_></weakClassifiers></stage8>
</opencv_storage>
