<?xml version="1.0"?>
<opencv_storage>
<stage9>
  <maxWeakCount>6</maxWeakCount>
  <stageThreshold>-9.5546448230743408e-01</stageThreshold>
  <weakClassifiers>
    <_>
      <internalNodes>
        0 -1 3501291 -6.3143647275865078e-04</internalNodes>
      <leafValues>
        6.1490684747695923e-01 -5.5056178569793701e-01</leafValues></_>
    <_>
      <internalNodes>
        0 -1 533074 4.0421866287942976e-05</internalNodes>
      <leafValues>
        3.9466825127601624e-01 -8.8092291355133057e-01</leafValues></_>
    <_>
      <internalNodes>
        0 -1 4229744 -2.1179500618018210e-04</internalNodes>
      <leafValues>
        -8.4267121553421021e-01 3.7397313117980957e-01</leafValues></_>
    <_>
      <internalNodes>
        0 -1 2166229 -3.6701525095850229e-03</internalNodes>
      <leafValues>
        6.7077165842056274e-01 -5.4744029045104980e-01</leafValues></_>
    <_>
      <internalNodes>
        0 -1 4430462 2.2672517225146294e-03</internalNodes>
      <leafValues>
        3.5655161738395691e-01 -9.2432755231857300e-01</leafValues></_>
    <_>
      <internalNodes>
        0 -1 2614641 -5.6635508371982723e-05</internalNodes>
      <leafValues>
        -9.0471547842025757e-01 2.9293578863143921e-01</leafValues></_></weakClassifiers></stage9>
</opencv_storage>
