<?xml version="1.0"?>
<opencv_storage>
<stage5>
  <maxWeakCount>6</maxWeakCount>
  <stageThreshold>-1.0922471284866333e+00</stageThreshold>
  <weakClassifiers>
    <_>
      <internalNodes>
        0 -1 858178 -5.2688913419842720e-03</internalNodes>
      <leafValues>
        7.1428573131561279e-01 -3.8461539149284363e-01</leafValues></_>
    <_>
      <internalNodes>
        0 -1 3388088 -1.3980832882225513e-03</internalNodes>
      <leafValues>
        5.3696179389953613e-01 -5.3244352340698242e-01</leafValues></_>
    <_>
      <internalNodes>
        0 -1 3425540 -4.4838902795163449e-06</internalNodes>
      <leafValues>
        5.2874660491943359e-01 -5.7068109512329102e-01</leafValues></_>
    <_>
      <internalNodes>
        0 -1 3602363 7.3209084803238511e-05</internalNodes>
      <leafValues>
        3.8246414065361023e-01 -7.8906798362731934e-01</leafValues></_>
    <_>
      <internalNodes>
        0 -1 2201994 -8.7748840451240540e-03</internalNodes>
      <leafValues>
        6.5568184852600098e-01 -5.1697880029678345e-01</leafValues></_>
    <_>
      <internalNodes>
        0 -1 3374294 -1.4646892668679357e-03</internalNodes>
      <leafValues>
        6.2547892332077026e-01 -5.6942015886306763e-01</leafValues></_></weakClassifiers></stage5>
</opencv_storage>
