<?xml version="1.0"?>
<opencv_storage>
<stage4>
  <maxWeakCount>6</maxWeakCount>
  <stageThreshold>-6.1928856372833252e-01</stageThreshold>
  <weakClassifiers>
    <_>
      <internalNodes>
        0 -1 4315229 -6.6713802516460419e-04</internalNodes>
      <leafValues>
        6.8275862932205200e-01 -4.6666666865348816e-01</leafValues></_>
    <_>
      <internalNodes>
        0 -1 1608649 3.1706757843494415e-02</internalNodes>
      <leafValues>
        -3.4470763802528381e-01 8.6916470527648926e-01</leafValues></_>
    <_>
      <internalNodes>
        0 -1 1893649 -2.5302951689809561e-03</internalNodes>
      <leafValues>
        8.3368015289306641e-01 -3.5965809226036072e-01</leafValues></_>
    <_>
      <internalNodes>
        0 -1 3606772 -1.5055310213938355e-03</internalNodes>
      <leafValues>
        8.3176004886627197e-01 -4.6284902095794678e-01</leafValues></_>
    <_>
      <internalNodes>
        0 -1 4468237 -5.7753877626964822e-05</internalNodes>
      <leafValues>
        -8.7995570898056030e-01 5.1582455635070801e-01</leafValues></_>
    <_>
      <internalNodes>
        0 -1 1467392 -5.3097065538167953e-03</internalNodes>
      <leafValues>
        5.6356680393218994e-01 -6.9457000494003296e-01</leafValues></_></weakClassifiers></stage4>
</opencv_storage>
