<?xml version="1.0"?>
<opencv_storage>
<cascade>
  <stageType>BOOST</stageType>
  <featureType>HAAR</featureType>
  <height>20</height>
  <width>30</width>
  <stageParams>
    <boostType>GAB</boostType>
    <minHitRate>9.9500000476837158e-01</minHitRate>
    <maxFalseAlarm>5.0000000000000000e-01</maxFalseAlarm>
    <weightTrimRate>9.4999999999999996e-01</weightTrimRate>
    <maxDepth>1</maxDepth>
    <maxWeakCount>100</maxWeakCount></stageParams>
  <featureParams>
    <maxCatCount>0</maxCatCount>
    <featSize>1</featSize>
    <mode>ALL</mode></featureParams>
  <stageNum>20</stageNum>
  <stages>
    <!-- stage 0 -->
    <_>
      <maxWeakCount>2</maxWeakCount>
      <stageThreshold>1.0687224566936493e-01</stageThreshold>
      <weakClassifiers>
        <_>
          <internalNodes>
            0 -1 13 3.5762327024713159e-04</internalNodes>
          <leafValues>
            1. -7.6470589637756348e-01</leafValues></_>
        <_>
          <internalNodes>
            0 -1 2 -3.4750672057271004e-04</internalNodes>
          <leafValues>
            9.4369643926620483e-01 -8.9312773942947388e-01</leafValues></_></weakClassifiers></_>
    <!-- stage 1 -->
    <_>
      <maxWeakCount>1</maxWeakCount>
      <stageThreshold>8.4210526943206787e-01</stageThreshold>
      <weakClassifiers>
        <_>
          <internalNodes>
            0 -1 17 -5.8978055603802204e-03</internalNodes>
          <leafValues>
            -1. 8.4210526943206787e-01</leafValues></_></weakClassifiers></_>
    <!-- stage 2 -->
    <_>
      <maxWeakCount>1</maxWeakCount>
      <stageThreshold>1.</stageThreshold>
      <weakClassifiers>
        <_>
          <internalNodes>
            0 -1 14 -7.0732710883021355e-03</internalNodes>
          <leafValues>
            -1. 1.</leafValues></_></weakClassifiers></_>
    <!-- stage 3 -->
    <_>
      <maxWeakCount>1</maxWeakCount>
      <stageThreshold>9.4444441795349121e-01</stageThreshold>
      <weakClassifiers>
        <_>
          <internalNodes>
            0 -1 4 -2.3986892774701118e-03</internalNodes>
          <leafValues>
            -1. 9.4444441795349121e-01</leafValues></_></weakClassifiers></_>
    <!-- stage 4 -->
    <_>
      <maxWeakCount>1</maxWeakCount>
      <stageThreshold>8.4210526943206787e-01</stageThreshold>
      <weakClassifiers>
        <_>
          <internalNodes>
            0 -1 22 2.4637265596538782e-03</internalNodes>
          <leafValues>
            8.4210526943206787e-01 -1.</leafValues></_></weakClassifiers></_>
    <!-- stage 5 -->
    <_>
      <maxWeakCount>1</maxWeakCount>
      <stageThreshold>8.4210526943206787e-01</stageThreshold>
      <weakClassifiers>
        <_>
          <internalNodes>
            0 -1 12 -2.0937819499522448e-04</internalNodes>
          <leafValues>
            8.4210526943206787e-01 -1.</leafValues></_></weakClassifiers></_>
    <!-- stage 6 -->
    <_>
      <maxWeakCount>2</maxWeakCount>
      <stageThreshold>3.8972264528274536e-01</stageThreshold>
      <weakClassifiers>
        <_>
          <internalNodes>
            0 -1 19 -3.0327844797284342e-05</internalNodes>
          <leafValues>
            1. -4.2857143282890320e-01</leafValues></_>
        <_>
          <internalNodes>
            0 -1 15 -8.0364622408524156e-04</internalNodes>
          <leafValues>
            9.2889404296875000e-01 -6.1027735471725464e-01</leafValues></_></weakClassifiers></_>
    <!-- stage 7 -->
    <_>
      <maxWeakCount>2</maxWeakCount>
      <stageThreshold>-3.5414353013038635e-02</stageThreshold>
      <weakClassifiers>
        <_>
          <internalNodes>
            0 -1 16 6.2595843337476254e-04</internalNodes>
          <leafValues>
            -6.2500000000000000e-01 8.8235294818878174e-01</leafValues></_>
        <_>
          <internalNodes>
            0 -1 11 -6.1027534306049347e-02</internalNodes>
          <leafValues>
            -9.1776728630065918e-01 7.9186713695526123e-01</leafValues></_></weakClassifiers></_>
    <!-- stage 8 -->
    <_>
      <maxWeakCount>2</maxWeakCount>
      <stageThreshold>-2.4740185588598251e-02</stageThreshold>
      <weakClassifiers>
        <_>
          <internalNodes>
            0 -1 25 -1.9894197583198547e-02</internalNodes>
          <leafValues>
            -8.5714286565780640e-01 8.8888889551162720e-01</leafValues></_>
        <_>
          <internalNodes>
            0 -1 9 -5.4998556151986122e-04</internalNodes>
          <leafValues>
            -9.1362905502319336e-01 8.5193061828613281e-01</leafValues></_></weakClassifiers></_>
    <!-- stage 9 -->
    <_>
      <maxWeakCount>1</maxWeakCount>
      <stageThreshold>7.9487180709838867e-01</stageThreshold>
      <weakClassifiers>
        <_>
          <internalNodes>
            0 -1 23 -3.2219194690696895e-04</internalNodes>
          <leafValues>
            -1. 7.9487180709838867e-01</leafValues></_></weakClassifiers></_>
    <!-- stage 10 -->
    <_>
      <maxWeakCount>1</maxWeakCount>
      <stageThreshold>7.9487180709838867e-01</stageThreshold>
      <weakClassifiers>
        <_>
          <internalNodes>
            0 -1 24 -9.6096526831388474e-03</internalNodes>
          <leafValues>
            -1. 7.9487180709838867e-01</leafValues></_></weakClassifiers></_>
    <!-- stage 11 -->
    <_>
      <maxWeakCount>1</maxWeakCount>
      <stageThreshold>7.9487180709838867e-01</stageThreshold>
      <weakClassifiers>
        <_>
          <internalNodes>
            0 -1 7 1.8553165136836469e-04</internalNodes>
          <leafValues>
            7.9487180709838867e-01 -1.</leafValues></_></weakClassifiers></_>
    <!-- stage 12 -->
    <_>
      <maxWeakCount>2</maxWeakCount>
      <stageThreshold>4.6293717622756958e-01</stageThreshold>
      <weakClassifiers>
        <_>
          <internalNodes>
            0 -1 20 -6.8479869514703751e-04</internalNodes>
          <leafValues>
            1. -4.2857143282890320e-01</leafValues></_>
        <_>
          <internalNodes>
            0 -1 6 -1.2942921603098512e-04</internalNodes>
          <leafValues>
            1. -5.3706282377243042e-01</leafValues></_></weakClassifiers></_>
    <!-- stage 13 -->
    <_>
      <maxWeakCount>3</maxWeakCount>
      <stageThreshold>8.8847970962524414e-01</stageThreshold>
      <weakClassifiers>
        <_>
          <internalNodes>
            0 -1 21 9.2950023827143013e-05</internalNodes>
          <leafValues>
            -6.0000002384185791e-01 8.2857143878936768e-01</leafValues></_>
        <_>
          <internalNodes>
            0 -1 0 3.9535258110845461e-05</internalNodes>
          <leafValues>
            7.4764108657836914e-01 -9.2166244983673096e-01</leafValues></_>
        <_>
          <internalNodes>
            0 -1 10 -2.5880173780024052e-03</internalNodes>
          <leafValues>
            1. -6.8773287534713745e-01</leafValues></_></weakClassifiers></_>
    <!-- stage 14 -->
    <_>
      <maxWeakCount>1</maxWeakCount>
      <stageThreshold>8.4210526943206787e-01</stageThreshold>
      <weakClassifiers>
        <_>
          <internalNodes>
            0 -1 5 -2.5297394022345543e-03</internalNodes>
          <leafValues>
            -1. 8.4210526943206787e-01</leafValues></_></weakClassifiers></_>
    <!-- stage 15 -->
    <_>
      <maxWeakCount>2</maxWeakCount>
      <stageThreshold>1.1435898393392563e-01</stageThreshold>
      <weakClassifiers>
        <_>
          <internalNodes>
            0 -1 18 -2.4749164003878832e-04</internalNodes>
          <leafValues>
            9.4117647409439087e-01 -7.5000000000000000e-01</leafValues></_>
        <_>
          <internalNodes>
            0 -1 3 2.3987152962945402e-04</internalNodes>
          <leafValues>
            -8.2681751251220703e-01 8.9061766862869263e-01</leafValues></_></weakClassifiers></_>
    <!-- stage 16 -->
    <_>
      <maxWeakCount>1</maxWeakCount>
      <stageThreshold>7.9487180709838867e-01</stageThreshold>
      <weakClassifiers>
        <_>
          <internalNodes>
            0 -1 27 -9.8504917696118355e-04</internalNodes>
          <leafValues>
            -1. 7.9487180709838867e-01</leafValues></_></weakClassifiers></_>
    <!-- stage 17 -->
    <_>
      <maxWeakCount>1</maxWeakCount>
      <stageThreshold>7.5000000000000000e-01</stageThreshold>
      <weakClassifiers>
        <_>
          <internalNodes>
            0 -1 1 -5.3923167288303375e-03</internalNodes>
          <leafValues>
            -1. 7.5000000000000000e-01</leafValues></_></weakClassifiers></_>
    <!-- stage 18 -->
    <_>
      <maxWeakCount>2</maxWeakCount>
      <stageThreshold>9.0174078941345215e-02</stageThreshold>
      <weakClassifiers>
        <_>
          <internalNodes>
            0 -1 26 6.1353450291790068e-05</internalNodes>
          <leafValues>
            -7.1428573131561279e-01 8.3333331346511841e-01</leafValues></_>
        <_>
          <internalNodes>
            0 -1 29 2.1350765018723905e-04</internalNodes>
          <leafValues>
            8.8916802406311035e-01 -7.4315923452377319e-01</leafValues></_></weakClassifiers></_>
    <!-- stage 19 -->
    <_>
      <maxWeakCount>2</maxWeakCount>
      <stageThreshold>3.4899976104497910e-02</stageThreshold>
      <weakClassifiers>
        <_>
          <internalNodes>
            0 -1 8 9.2767807655036449e-04</internalNodes>
          <leafValues>
            9.3939393758773804e-01 -6.4705884456634521e-01</leafValues></_>
        <_>
          <internalNodes>
            0 -1 28 -1.5349523164331913e-03</internalNodes>
          <leafValues>
            -9.0449398756027222e-01 7.8994572162628174e-01</leafValues></_></weakClassifiers></_></stages>
  <features>
    <_>
      <rects>
        <_>
          0 1 2 14 -1.</_>
        <_>
          1 1 1 14 2.</_></rects>
      <tilted>0</tilted></_>
    <_>
      <rects>
        <_>
          0 10 4 9 -1.</_>
        <_>
          0 13 4 3 3.</_></rects>
      <tilted>0</tilted></_>
    <_>
      <rects>
        <_>
          0 15 10 5 -1.</_>
        <_>
          5 15 5 5 2.</_></rects>
      <tilted>0</tilted></_>
    <_>
      <rects>
        <_>
          0 15 27 4 -1.</_>
        <_>
          0 17 27 2 2.</_></rects>
      <tilted>0</tilted></_>
    <_>
      <rects>
        <_>
          0 19 20 1 -1.</_>
        <_>
          5 19 10 1 2.</_></rects>
      <tilted>0</tilted></_>
    <_>
      <rects>
        <_>
          0 19 16 1 -1.</_>
        <_>
          8 19 8 1 2.</_></rects>
      <tilted>0</tilted></_>
    <_>
      <rects>
        <_>
          1 4 4 3 -1.</_>
        <_>
          3 4 2 3 2.</_></rects>
      <tilted>0</tilted></_>
    <_>
      <rects>
        <_>
          1 17 8 3 -1.</_>
        <_>
          5 17 4 3 2.</_></rects>
      <tilted>0</tilted></_>
    <_>
      <rects>
        <_>
          1 19 24 1 -1.</_>
        <_>
          7 19 12 1 2.</_></rects>
      <tilted>0</tilted></_>
    <_>
      <rects>
        <_>
          2 0 4 2 -1.</_>
        <_>
          3 1 2 2 2.</_></rects>
      <tilted>1</tilted></_>
    <_>
      <rects>
        <_>
          4 0 12 6 -1.</_>
        <_>
          4 0 6 3 2.</_>
        <_>
          10 3 6 3 2.</_></rects>
      <tilted>0</tilted></_>
    <_>
      <rects>
        <_>
          5 1 24 5 -1.</_>
        <_>
          11 1 12 5 2.</_></rects>
      <tilted>0</tilted></_>
    <_>
      <rects>
        <_>
          5 15 6 3 -1.</_>
        <_>
          8 15 3 3 2.</_></rects>
      <tilted>0</tilted></_>
    <_>
      <rects>
        <_>
          6 12 2 6 -1.</_>
        <_>
          6 12 2 3 2.</_></rects>
      <tilted>1</tilted></_>
    <_>
      <rects>
        <_>
          9 0 6 7 -1.</_>
        <_>
          11 0 2 7 3.</_></rects>
      <tilted>0</tilted></_>
    <_>
      <rects>
        <_>
          9 1 8 9 -1.</_>
        <_>
          11 1 4 9 2.</_></rects>
      <tilted>0</tilted></_>
    <_>
      <rects>
        <_>
          11 2 8 16 -1.</_>
        <_>
          15 2 4 16 2.</_></rects>
      <tilted>0</tilted></_>
    <_>
      <rects>
        <_>
          12 3 10 16 -1.</_>
        <_>
          17 3 5 16 2.</_></rects>
      <tilted>0</tilted></_>
    <_>
      <rects>
        <_>
          13 15 2 2 -1.</_>
        <_>
          13 15 1 2 2.</_></rects>
      <tilted>1</tilted></_>
    <_>
      <rects>
        <_>
          16 18 8 2 -1.</_>
        <_>
          16 18 4 1 2.</_>
        <_>
          20 19 4 1 2.</_></rects>
      <tilted>0</tilted></_>
    <_>
      <rects>
        <_>
          17 8 3 2 -1.</_>
        <_>
          18 9 1 2 3.</_></rects>
      <tilted>1</tilted></_>
    <_>
      <rects>
        <_>
          22 17 6 3 -1.</_>
        <_>
          24 17 2 3 3.</_></rects>
      <tilted>0</tilted></_>
    <_>
      <rects>
        <_>
          23 0 6 2 -1.</_>
        <_>
          25 0 2 2 3.</_></rects>
      <tilted>0</tilted></_>
    <_>
      <rects>
        <_>
          23 18 6 2 -1.</_>
        <_>
          25 18 2 2 3.</_></rects>
      <tilted>0</tilted></_>
    <_>
      <rects>
        <_>
          24 0 6 3 -1.</_>
        <_>
          24 0 3 3 2.</_></rects>
      <tilted>1</tilted></_>
    <_>
      <rects>
        <_>
          24 9 6 9 -1.</_>
        <_>
          26 12 2 3 9.</_></rects>
      <tilted>0</tilted></_>
    <_>
      <rects>
        <_>
          24 10 5 10 -1.</_>
        <_>
          24 15 5 5 2.</_></rects>
      <tilted>0</tilted></_>
    <_>
      <rects>
        <_>
          25 11 3 2 -1.</_>
        <_>
          25 11 3 1 2.</_></rects>
      <tilted>1</tilted></_>
    <_>
      <rects>
        <_>
          26 12 2 8 -1.</_>
        <_>
          26 14 2 4 2.</_></rects>
      <tilted>0</tilted></_>
    <_>
      <rects>
        <_>
          26 13 4 1 -1.</_>
        <_>
          26 13 2 1 2.</_></rects>
      <tilted>1</tilted></_></features></cascade>
</opencv_storage>
